%YAML:1.0
opencv_ml_svm:
   format: 3
   svmType: EPS_SVR
   kernel:
      type: LINEAR
   C: 1.0000000000000000e-02
   p: 1.0000000000000001e-01
   term_criteria: { iterations:100 }
   var_count: 576
   sv_total: 1
   support_vectors:
      - [ -4.04249690e-02, -1.90933254e-02, 1.75027680e-02,
          5.29805850e-03, -2.93642115e-02, 1.60963032e-02,
          7.16860732e-03, -1.04243979e-02, -2.55108569e-02,
          -1.54851964e-02, 3.25102210e-02, 4.72914763e-02,
          -9.20822611e-04, -3.19425203e-02, 9.46823880e-03,
          5.43738902e-03, -1.13881584e-02, -2.44114697e-02,
          -3.27057503e-02, 1.08942506e-03, 3.43971476e-02,
          2.40451228e-02, 3.82641796e-03, 5.60412696e-03, 7.41125643e-03,
          -8.98562558e-03, -1.74808148e-02, -5.54438727e-03,
          6.40695691e-02, 7.61366338e-02, 5.43664359e-02, 2.52735652e-02,
          1.53562203e-02, -1.19698164e-03, 1.50931885e-06,
          -1.18937844e-03, 6.96226396e-03, 2.51327977e-02,
          2.59759761e-02, -1.95223168e-02, -4.08361666e-02,
          1.04107847e-02, 5.52916550e-04, -7.67696463e-03,
          -1.59200095e-02, 1.83798373e-02, 3.95330749e-02,
          1.28653552e-02, -3.64255086e-02, -4.61384319e-02,
          3.70029686e-03, 2.73951376e-03, -3.07740818e-04,
          3.18296929e-03, 7.15791900e-03, 4.73054461e-02, 6.13372438e-02,
          6.11703955e-02, 2.03104839e-02, 2.12555155e-02, 3.43830045e-03,
          -3.84674553e-04, 7.20316020e-04, 1.17795849e-02,
          4.65440191e-02, 3.65512520e-02, 3.16311456e-02, 9.87805426e-03,
          4.10500467e-02, 2.69245799e-03, 6.57408917e-03,
          -1.74687465e-03, 2.47498658e-02, 2.67910268e-02,
          2.91413139e-03, -3.62612642e-02, -3.28916647e-02,
          8.52671731e-03, 1.18804742e-02, 8.07484239e-03, 2.45023891e-02,
          1.88679656e-03, 4.47633816e-03, -2.01622937e-02,
          -3.87626328e-02, -3.96814421e-02, 2.23809257e-02,
          1.76358335e-02, 1.73944216e-02, 1.44483568e-02, 8.66751373e-03,
          1.56518128e-02, -1.07325078e-03, 2.72012670e-02,
          3.01334541e-02, 5.70425168e-02, 1.18984338e-02, 1.47098778e-02,
          4.32798872e-03, 1.68067799e-03, -1.36975180e-02,
          -1.55762043e-02, 9.02678911e-03, 2.60238256e-02,
          6.72393888e-02, 1.65516194e-02, 1.67485327e-02, 1.06123025e-02,
          1.74186863e-02, 1.10579142e-02, -6.60605542e-03,
          -4.06973660e-02, -2.32114550e-02, 5.42752258e-02,
          3.58733721e-02, 4.26833928e-02, 4.21798788e-02,
          -3.88614554e-03, -2.42918450e-03, -9.37399687e-04,
          -5.66288717e-02, -6.69249594e-02, 2.85976520e-03,
          2.03566700e-02, 3.00361887e-02, 1.93556827e-02,
          -7.40280747e-03, -1.15000475e-02, -6.52567949e-03,
          3.14019471e-02, 5.39441817e-02, 9.87184718e-02, 2.06895005e-02,
          7.54055008e-03, -1.79813849e-03, -4.82800491e-02,
          -3.04198228e-02, -1.53492130e-02, -1.34644555e-02,
          -5.18819457e-03, 2.54350323e-02, -3.94500466e-03,
          -1.81544088e-02, -3.69950645e-02, -4.24054414e-02,
          -3.69891897e-02, -8.66563153e-03, 3.03218514e-02,
          2.95714345e-02, 1.03217864e-03, -2.33832817e-03,
          -1.61359068e-02, -3.74141149e-02, -3.16473767e-02,
          7.30096456e-03, 1.93252340e-02, 7.53899738e-02, 7.49076158e-02,
          -2.46308139e-03, -1.16719250e-02, -1.71595272e-02,
          -2.67197303e-02, -4.38914075e-02, -3.25528830e-02,
          -2.93670334e-02, 1.22673083e-02, 4.20220941e-02,
          -1.09789195e-02, -1.63251217e-02, -1.87768638e-02,
          -4.40966636e-02, -3.78368534e-02, -2.79285368e-02,
          -4.64993455e-02, 4.77988198e-02, 6.22803010e-02,
          -2.98052002e-03, -3.00578922e-02, -2.39546560e-02,
          -3.43093202e-02, -1.11931125e-02, 1.05297696e-02,
          1.10647716e-02, 6.20130971e-02, 4.35291864e-02, 6.61678379e-03,
          -1.76388968e-03, -7.80877005e-03, -1.19188186e-02,
          -1.16938334e-02, 2.25542812e-03, -2.80691497e-03,
          1.99807063e-02, 3.01924385e-02, 2.21049413e-02,
          -7.43002445e-03, -1.06342360e-02, -2.08161976e-02,
          -1.70593373e-02, -1.15895104e-02, -2.78745890e-02,
          5.29751927e-02, 5.46761937e-02, 1.01115359e-02,
          -1.33115519e-02, -7.01375911e-03, -1.17878169e-02,
          -2.02791821e-02, -1.39408307e-02, -2.57159937e-02,
          3.04491185e-02, 2.83609200e-02, 2.84341890e-02, 3.21184960e-03,
          -8.44200049e-03, -1.24861887e-02, -9.91625618e-03,
          -1.30200535e-02, -3.38059291e-02, 9.18364245e-03,
          4.12407927e-02, 4.19080481e-02, -3.63197830e-03,
          -6.42465719e-04, -1.17929801e-02, -8.52499530e-03,
          -2.21042521e-02, -3.15392464e-02, 1.53401708e-02,
          3.73026989e-02, 4.82094549e-02, -8.81459005e-03,
          -1.81986520e-03, -1.04929805e-02, -6.01685932e-03,
          -1.28348833e-02, -3.82499956e-02, 3.20915356e-02,
          3.25360484e-02, 4.92715687e-02, 1.04077160e-02, 2.23905756e-03,
          -1.97143690e-03, -1.68872997e-02, -3.20996642e-02,
          -4.86981906e-02, 3.97707932e-02, 3.61301638e-02,
          4.49906774e-02, 2.77519948e-03, -4.63889097e-04,
          -1.98329426e-02, -2.02255603e-02, -2.41290648e-02,
          -2.26045866e-02, 3.47270966e-02, 8.70434493e-02,
          5.39406873e-02, -1.65271778e-02, -1.78048499e-02,
          -2.29909420e-02, -5.31965047e-02, -4.16338183e-02,
          -3.74291129e-02, -3.98910430e-04, 2.21851878e-02,
          -7.76821328e-03, -3.01536713e-02, -3.13677974e-02,
          -4.30529490e-02, -3.11788842e-02, -3.61121371e-02,
          -3.31764370e-02, 7.22961947e-02, 8.69342834e-02,
          3.41945812e-02, -1.67102665e-02, -1.77454352e-02,
          -3.41416821e-02, -5.03374487e-02, -4.17649746e-02,
          -5.14518581e-02, 2.64127478e-02, 1.16621424e-02,
          -2.91175134e-02, -3.29055116e-02, -3.14061977e-02,
          -4.66974415e-02, -2.20461600e-02, -2.11547129e-02,
          -6.14287965e-02, -1.77854132e-02, 3.83490250e-02,
          1.32857235e-02, -4.64362232e-03, -5.04629267e-03,
          -2.18021460e-02, -3.67558002e-03, 6.88583078e-03,
          -2.45302636e-02, 2.29573287e-02, 7.05492496e-02,
          2.24945545e-02, -3.53411585e-03, 9.44545679e-03,
          1.60663319e-03, -1.58308353e-02, -1.38109513e-02,
          -4.93792519e-02, -7.26619214e-02, 7.22622126e-03,
          2.03522760e-02, 2.15917663e-03, -7.81240116e-04,
          -2.75790915e-02, 3.71102020e-02, 8.41305554e-02,
          2.89677102e-02, 1.75838470e-02, 5.80326430e-02, 5.98261356e-02,
          3.70673127e-02, 4.31171134e-02, 2.55933143e-02, 8.62029847e-03,
          -6.51140697e-04, -2.05100980e-02, -6.97288709e-03,
          1.58256516e-02, -4.37717373e-03, -3.59799014e-03,
          1.82850864e-02, 1.17876288e-02, 1.53643908e-02, 3.35001620e-04,
          -1.99219733e-02, 2.67146667e-03, -6.53186301e-03,
          -7.97574222e-03, 9.11243167e-03, 2.05302555e-02,
          3.06050405e-02, 4.79690656e-02, 7.17533603e-02, 5.02878949e-02,
          5.27136400e-03, -1.41412450e-03, 6.70085754e-03,
          2.75136009e-02, 5.25016226e-02, 4.45790216e-02, 6.68741688e-02,
          4.82644252e-02, 4.62769158e-02, 2.04829276e-02,
          -3.65847573e-02, -1.06437886e-02, 2.68395580e-02,
          4.54985760e-02, 6.40676618e-02, 3.11156027e-02, 3.87558853e-03,
          -7.51528610e-03, 2.36482471e-02, 1.29813678e-04,
          3.54196168e-02, 2.96293143e-02, 2.74187680e-02, 4.05304022e-02,
          -1.66787729e-02, -2.89453343e-02, -3.16103697e-02,
          4.19813618e-02, 1.55898957e-02, 1.73933245e-02, 1.68014262e-02,
          4.96089738e-03, -1.58141330e-02, 6.56864271e-02,
          3.76713239e-02, 4.17013578e-02, 3.60306874e-02,
          -1.95529349e-02, 2.02849228e-02, 5.02456836e-02,
          4.59551215e-02, 5.22471108e-02, 8.25880747e-03, 2.91347993e-03,
          1.68975033e-02, 5.08212782e-02, -1.24848196e-02,
          1.93097964e-02, 4.01044302e-02, 1.69849060e-02, 7.46685173e-03,
          -3.50395106e-02, -3.73899974e-02, -3.07443701e-02,
          8.14346150e-02, 6.92488030e-02, 2.29962114e-02, 7.69048510e-03,
          -9.71458480e-03, -2.76535247e-02, -5.31048328e-02,
          -3.52111384e-02, -4.02110144e-02, 2.93528922e-02,
          7.13041332e-03, -1.97303481e-02, -1.79270394e-02,
          -2.23398898e-02, -4.36789095e-02, 8.02625623e-03,
          4.56746155e-03, 2.98699550e-02, 8.07824731e-02, 2.80717555e-02,
          2.39379723e-02, 3.45794261e-02, 2.09852736e-02, 1.53456051e-02,
          -3.19483317e-02, -3.25513557e-02, -1.10420277e-02,
          1.98125858e-02, -4.31386149e-03, -1.92981213e-02,
          -8.10968690e-03, -1.21305855e-02, -2.49267016e-02,
          -2.11906317e-03, 1.76406987e-02, -2.86680199e-02,
          -6.53962269e-02, -1.92143563e-02, -5.99856162e-03,
          5.68431988e-03, 5.85353700e-03, -3.34332511e-02,
          6.89029992e-02, 1.43759251e-01, 7.23268166e-02, 5.74550331e-02,
          4.37187217e-02, 4.44839820e-02, 5.52285276e-02, 6.20084628e-02,
          4.10523713e-02, -5.70948906e-02, 4.17098701e-02,
          3.55591695e-03, -4.16703410e-02, -5.29516824e-02,
          -6.19212352e-02, -3.46925035e-02, -4.92837951e-02,
          -8.49408805e-02, -9.30800755e-03, 8.86528119e-02,
          5.44086695e-02, 3.95113677e-02, -1.75562333e-02,
          -2.37594750e-02, -1.29452525e-02, -1.86896957e-02,
          -3.17550972e-02, 5.88088706e-02, 9.88433361e-02,
          6.76905662e-02, 3.11271232e-02, -8.95029772e-03,
          9.32735275e-04, 3.31047475e-02, 4.58145849e-02, 3.78166735e-02,
          4.49814275e-02, 6.87409341e-02, 4.97908033e-02, 3.90357040e-02,
          -2.54295506e-02, -3.77992447e-03, 2.27401238e-02,
          3.33372392e-02, 2.77462788e-02, -1.12382127e-02,
          2.49507464e-02, -4.86086938e-04, -1.66611299e-02,
          -3.92928980e-02, -2.58793775e-02, -1.40407598e-02,
          -1.33045428e-02, -1.50568401e-02, -3.80481267e-03,
          2.14775465e-02, 1.25170751e-02, -1.98897254e-02,
          -2.95115318e-02, -1.65589675e-02, -7.61572644e-03,
          -7.90598523e-03, -5.69886295e-03, 5.57784922e-02,
          7.34259635e-02, 6.56045526e-02, 4.63311523e-02,
          -2.20055860e-02, 1.24734007e-02, 4.48589809e-02,
          3.82081494e-02, 3.47228423e-02, 2.05825530e-02, 4.09894884e-02,
          6.17442727e-02, 4.04869281e-02, -3.22875157e-02,
          6.56479038e-04, 3.06772329e-02, 8.43204185e-03, 7.17478991e-03,
          7.09767966e-03, 4.88265380e-02, 4.91078347e-02,
          -8.55999999e-03, -4.72731926e-02, -1.94215272e-02,
          -9.34835498e-06, 7.43089127e-04, 4.13300050e-03,
          -4.85738739e-03, 2.68597491e-02, 3.07025649e-02,
          -3.34755704e-02, -6.85167909e-02, -3.57323810e-02,
          -8.30087997e-03, -1.83528699e-02, -1.08940015e-02,
          4.17185463e-02, 3.30850109e-02, 6.64037988e-02, 3.86458300e-02,
          -1.16956085e-02, 2.06312053e-02, 4.55637425e-02,
          2.87417360e-02, 4.25806344e-02, -1.05457613e-02,
          -2.30313484e-02, 1.24985352e-02, -2.46175223e-05,
          -3.36154588e-02, -1.59997158e-02, -2.20409036e-03,
          -1.62440259e-02, -1.02683455e-02, 1.73670668e-02,
          3.64932381e-02, 5.49532399e-02, -2.62276549e-02,
          -5.61596826e-02, -1.96241010e-02, 1.29205442e-03,
          -1.66555140e-02, 1.70319285e-02, 2.38105748e-03,
          1.39134889e-02, 3.20813209e-02, -4.35907766e-02,
          -4.99634258e-02, -2.23367885e-02, -2.16112584e-02,
          -3.01772058e-02, -7.64600886e-03 ]
   uncompressed_sv_total: 200
   uncompressed_support_vectors:
      - [ 9.32048541e-03, 7.76735470e-02, 1.56822100e-01, 6.96033910e-02,
          3.15868184e-02, 7.11532589e-03, 1.95697509e-03, 5.26208756e-03,
          5.04804356e-03, 4.52295803e-02, 2.45285749e-01, 3.51908982e-01,
          2.81301171e-01, 8.76456127e-02, 1.37759689e-02, 6.35732943e-03,
          1.16108758e-02, 6.41394556e-02, 8.62978678e-03, 1.15882911e-01,
          2.19116539e-01, 1.78024650e-01, 2.96082497e-01, 3.36890668e-02,
          1.65073795e-03, 5.58724999e-03, 4.62695397e-03, 2.12091338e-02,
          3.50013763e-01, 3.51908982e-01, 3.51908982e-01, 3.51908982e-01,
          6.49823323e-02, 1.04231285e-02, 1.10488068e-02, 3.85124795e-02,
          7.73688257e-02, 2.13358998e-01, 2.91605890e-01, 2.26842731e-01,
          1.01866692e-01, 1.09535586e-02, 1.06568309e-02, 3.44762318e-02,
          7.33239800e-02, 1.88457087e-01, 2.91605890e-01, 2.91605890e-01,
          1.57205418e-01, 1.23797156e-01, 2.04118751e-02, 3.94699089e-02,
          8.53779688e-02, 1.18847832e-01, 5.51526621e-02, 1.74392864e-01,
          2.74764329e-01, 2.91605890e-01, 2.91605890e-01, 3.77541110e-02,
          2.43891478e-02, 3.10240984e-02, 6.54965416e-02, 1.60752043e-01,
          1.47537172e-01, 1.40276372e-01, 2.05129460e-01, 2.91605890e-01,
          7.64791295e-02, 5.67681342e-02, 8.25199485e-02, 1.62262753e-01,
          1.87020004e-01, 3.25019389e-01, 3.28188628e-01, 1.01355188e-01,
          1.06132306e-01, 3.27709429e-02, 6.58933818e-02, 6.81255832e-02,
          1.46113873e-01, 1.25804365e-01, 7.25311637e-02, 7.18351379e-02,
          4.87547815e-02, 2.40529597e-01, 1.69749096e-01, 1.07271455e-01,
          1.54282078e-01, 1.57105014e-01, 1.30228832e-01, 1.07884802e-01,
          1.21674009e-01, 2.15679973e-01, 3.28188628e-01, 1.29717439e-01,
          1.26702189e-01, 5.94161451e-02, 1.48918062e-01, 6.68750182e-02,
          5.04384227e-02, 6.23211488e-02, 2.08308026e-01, 3.28188628e-01,
          2.82130569e-01, 1.32904604e-01, 3.01438272e-02, 6.15118928e-02,
          6.50545061e-02, 2.71022338e-02, 6.13833591e-03, 3.26652490e-02,
          4.17322844e-01, 4.17322844e-01, 1.74013481e-01, 2.52439141e-01,
          1.52180016e-01, 4.48427163e-02, 3.23767439e-02, 2.37722956e-02,
          1.36345513e-02, 6.67614564e-02, 8.92000571e-02, 4.86127883e-02,
          5.44952974e-02, 4.54993546e-02, 1.91948414e-02, 1.76698212e-02,
          4.57994230e-02, 2.41996616e-01, 4.17322844e-01, 4.17322844e-01,
          1.07822113e-01, 3.95063236e-02, 2.58771218e-02, 1.68708842e-02,
          7.21270069e-02, 1.10839635e-01, 8.74264464e-02, 1.91347703e-01,
          1.11876696e-01, 4.40696031e-02, 1.77294817e-02, 1.83118489e-02,
          2.01326385e-02, 4.05629538e-02, 6.71117678e-02, 1.31168514e-01,
          3.52328509e-01, 2.54142899e-02, 5.60438668e-04, 2.71247746e-03,
          1.09587442e-02, 5.60125057e-03, 4.64401320e-02, 8.43522251e-02,
          3.85375887e-01, 3.85375887e-01, 7.68961012e-02, 3.29689006e-03,
          2.96743237e-03, 4.26269136e-03, 9.77894440e-02, 1.56975552e-01,
          2.76371330e-01, 1.23201460e-01, 3.85375887e-01, 8.19244683e-02,
          2.25113495e-03, 6.57592388e-03, 5.26237153e-02, 9.45538953e-02,
          4.46827561e-02, 5.29180020e-02, 1.59767702e-01, 3.85375887e-01,
          2.09497660e-01, 2.24635843e-02, 8.53635967e-02, 1.09232441e-01,
          1.81413200e-02, 2.02045981e-02, 4.72683609e-02, 2.95203537e-01,
          2.95203537e-01, 8.02769586e-02, 3.62542495e-02, 2.02001184e-02,
          2.37529799e-02, 6.34556636e-02, 9.58257262e-03, 6.12281300e-02,
          2.38799453e-01, 2.95203537e-01, 1.18801005e-01, 9.64748263e-02,
          7.96831250e-02, 1.04940489e-01, 2.00229406e-01, 5.58140054e-02,
          6.60374984e-02, 1.02044813e-01, 2.95203537e-01, 1.58006355e-01,
          7.86076114e-02, 1.62150711e-01, 2.53762484e-01, 1.37325391e-01,
          8.21415037e-02, 1.70815796e-01, 1.68220967e-01, 2.41922438e-01,
          1.55941412e-01, 2.57167339e-01, 2.62539506e-01, 2.24251866e-01,
          3.25090773e-02, 2.62537561e-02, 6.49366751e-02, 2.95825630e-01,
          3.40097845e-01, 1.17592022e-01, 8.04819241e-02, 5.45042157e-02,
          7.84457251e-02, 1.19732944e-02, 2.45426260e-02, 5.19550480e-02,
          2.94082493e-01, 3.40097845e-01, 1.40900463e-01, 4.79865186e-02,
          1.65484678e-02, 3.00155859e-02, 2.44971160e-02, 5.18378690e-02,
          1.27042785e-01, 2.35838577e-01, 3.40097845e-01, 1.49497375e-01,
          1.80468038e-01, 1.66047037e-01, 8.93582627e-02, 1.68291107e-02,
          2.73198616e-02, 7.57598802e-02, 3.40097845e-01, 3.40097845e-01,
          7.22659528e-02, 4.47314829e-02, 3.15179490e-02, 3.99562754e-02,
          6.66229986e-03, 2.21628826e-02, 7.00465143e-02, 3.81075501e-01,
          4.64563936e-01, 2.00235635e-01, 2.31395029e-02, 1.84896810e-04,
          3.10416752e-03, 1.24474391e-02, 6.68574944e-02, 9.95557383e-02,
          1.44757345e-01, 1.78185076e-01, 4.15627584e-02, 1.75798908e-02,
          8.28553166e-04, 5.57943992e-03, 1.58885568e-02, 1.97627079e-02,
          8.36258084e-02, 4.64563936e-01, 4.64563936e-01, 9.14418325e-02,
          1.90748479e-02, 3.43837729e-03, 7.86257535e-03, 3.22386473e-02,
          3.52124125e-02, 7.31722489e-02, 1.89854220e-01, 1.62071347e-01,
          1.97523478e-02, 1.28793577e-02, 8.63171928e-03, 1.67488102e-02,
          1.18517011e-01, 2.38622665e-01, 2.79896647e-01, 1.12954818e-01,
          2.79896647e-01, 1.18560433e-01, 6.43316982e-03, 1.17079550e-02,
          8.76277760e-02, 2.56121159e-01, 1.54450238e-01, 1.96999192e-01,
          9.98094603e-02, 2.79896647e-01, 2.78757364e-01, 3.88857387e-02,
          2.05175281e-01, 2.60666817e-01, 7.84034878e-02, 8.16682801e-02,
          1.20936699e-01, 5.12774028e-02, 9.70346183e-02, 2.90351715e-02,
          6.76603848e-03, 8.10361654e-03, 5.15211076e-02, 2.12174028e-01,
          1.81207046e-01, 2.79896647e-01, 1.90181732e-01, 1.88327327e-01,
          1.33528754e-01, 5.38033545e-02, 1.20068915e-01, 1.51531190e-01,
          2.31906727e-01, 1.61378652e-01, 1.67944446e-01, 6.25383854e-02,
          1.83862433e-01, 1.25167638e-01, 4.98544350e-02, 1.72003001e-01,
          2.31906727e-01, 2.07181036e-01, 2.31906727e-01, 2.07899719e-01,
          8.85440484e-02, 1.23271681e-01, 1.53534368e-01, 1.64123863e-01,
          2.15013877e-01, 1.50793016e-01, 2.02170625e-01, 2.25535229e-01,
          2.31906727e-01, 1.82854190e-01, 1.05683580e-01, 1.17135324e-01,
          6.31274879e-02, 9.19005275e-02, 1.16119049e-01, 2.31906727e-01,
          2.31906727e-01, 2.12109327e-01, 1.44944653e-01, 9.36628804e-02,
          1.47588223e-01, 1.11948833e-01, 1.20140076e-01, 8.44690949e-02,
          1.25755817e-01, 1.95004806e-01, 1.28247410e-01, 1.50397331e-01,
          1.95137456e-01, 2.58812428e-01, 2.26659909e-01, 2.58812428e-01,
          8.79657641e-02, 2.99571566e-02, 3.61046493e-02, 7.99543187e-02,
          2.58812428e-01, 2.58812428e-01, 9.37642753e-02, 9.86362323e-02,
          1.72250316e-01, 6.22593947e-02, 2.58812428e-01, 2.58812428e-01,
          9.77602005e-02, 1.26095191e-01, 9.30417106e-02, 2.23168597e-01,
          1.61471739e-01, 2.58812428e-01, 9.81523916e-02, 6.53544813e-02,
          9.28833485e-02, 8.71528015e-02, 2.40346983e-01, 1.00032747e-01,
          5.88418283e-02, 1.03847496e-01, 2.14981690e-01, 9.70041528e-02,
          1.61697082e-02, 1.97642650e-02, 9.14067775e-02, 3.60688776e-01,
          3.60688776e-01, 3.75863127e-02, 4.29357812e-02, 6.52740747e-02,
          3.46108116e-02, 8.77117217e-02, 4.48882319e-02, 1.59491137e-01,
          1.51423201e-01, 1.11119956e-01, 1.38249006e-02, 1.64819956e-02,
          2.72222552e-02, 7.77558386e-02, 1.77418906e-02, 4.15207632e-02,
          9.15511921e-02, 3.60688776e-01, 1.99209541e-01, 3.05665508e-02,
          5.12836911e-02, 9.00639966e-02, 5.92963137e-02, 2.72704422e-01,
          1.17820121e-01, 3.60688776e-01, 2.24233270e-01, 3.60688776e-01,
          6.94354549e-02, 1.54440394e-02, 2.18347628e-02, 2.02871978e-01,
          7.98062161e-02, 2.49178171e-01, 2.15055168e-01, 5.54316267e-02,
          3.97461839e-02, 1.38886888e-02, 1.26203494e-02, 9.60518420e-03,
          2.80557685e-02, 3.31341356e-01, 3.12461704e-01, 3.46060604e-01,
          3.46060604e-01, 1.77215666e-01, 2.74009824e-01, 2.49772429e-01,
          8.02626684e-02, 1.13383077e-01, 3.40367854e-02, 2.17837825e-01,
          2.42818877e-01, 1.04653373e-01, 5.71812764e-02, 6.95100939e-03,
          1.01984208e-02, 1.20838974e-02, 1.66937783e-02, 1.37691706e-01,
          2.23738447e-01, 1.89293772e-01, 6.04732074e-02, 5.25942668e-02,
          5.42153604e-02, 5.36230952e-02, 1.39015242e-02, 3.45210172e-02,
          2.88485110e-01, 2.40033612e-01, 2.88485110e-01, 2.88485110e-01,
          9.85109359e-02, 2.39127368e-01, 2.05904484e-01, 8.27470347e-02,
          1.48292154e-01, 2.88485110e-01, 2.88485110e-01, 2.03389868e-01,
          2.51768708e-01, 7.02443570e-02, 2.51049578e-01, 2.30474412e-01,
          1.85177729e-01, 2.16515422e-01, 1.07171506e-01, 7.84715191e-02,
          7.49331117e-02, 4.39602062e-02, 3.82766575e-02, 4.54938151e-02,
          4.06687334e-02, 1.73387546e-02, 2.74820756e-02, 7.12696388e-02,
          4.93336394e-02, 7.54751861e-02, 9.94383097e-02, 8.71571824e-02,
          6.79280087e-02, 7.78829530e-02, 4.74492721e-02, 5.65500073e-02,
          3.39360923e-01, 3.39360923e-01, 1.80680349e-01, 2.80799687e-01,
          1.13039881e-01, 2.72538990e-01, 2.59621471e-01, 3.13582212e-01,
          2.75995344e-01, 1.52243748e-01, 2.40442440e-01, 1.59416080e-01,
          1.22986734e-01, 1.15505584e-01, 3.90189961e-02, 8.46338347e-02,
          1.50580600e-01, 1.41108781e-01, 6.59370571e-02, 6.49988428e-02,
          9.22568440e-02, 1.19547278e-01, 1.61663115e-01, 1.05406083e-01,
          1.48136482e-01, 9.88004953e-02, 1.07895523e-01, 5.14126047e-02,
          3.59568037e-02, 5.37421852e-02, 1.79396383e-02, 8.67695212e-02,
          2.27077026e-02, 5.90705946e-02, 6.39097542e-02, 7.02975094e-02,
          3.54528762e-02, 6.37972876e-02, 1.00134812e-01, 6.12741932e-02,
          2.01639727e-01, 3.73483151e-02, 4.40766104e-02, 5.38075119e-02,
          5.18187247e-02, 4.41304684e-01, 1.29409462e-01, 4.41304684e-01,
          3.40724021e-01, 4.41304684e-01, 1.44704744e-01, 3.16256322e-02,
          3.52598578e-02, 3.55132103e-01, 5.49290590e-02, 3.15232761e-02,
          9.04262140e-02, 9.43199173e-03, 7.96850547e-02, 5.09137893e-03,
          2.13421658e-02, 2.69053392e-02, 5.77022620e-02, 8.31947252e-02,
          2.08746418e-02, 7.63923377e-02, 4.00633886e-02, 1.07545197e-01,
          1.11594023e-02, 1.86543614e-02, 2.03022379e-02, 1.00527525e-01 ]
      - [ 1.30663142e-01, 1.46771729e-01, 2.21940443e-01, 1.45735934e-01,
          2.71657795e-01, 2.71657795e-01, 2.08576426e-01, 8.24168399e-02,
          3.34288999e-02, 1.60876185e-01, 9.03577656e-02, 1.68711260e-01,
          1.07202150e-01, 2.71657795e-01, 2.70864397e-01, 2.05971017e-01,
          6.31696507e-02, 9.96551290e-02, 1.62593111e-01, 1.57720074e-01,
          1.16053946e-01, 8.44081268e-02, 1.69242606e-01, 2.71657795e-01,
          1.93022147e-01, 1.07052594e-01, 4.43926975e-02, 1.10240966e-01,
          5.99397123e-02, 9.58221704e-02, 1.18624434e-01, 1.92315891e-01,
          2.15323925e-01, 1.99725300e-01, 1.28911361e-01, 8.80852044e-02,
          1.52209520e-01, 9.73561555e-02, 1.33549541e-01, 2.10462064e-01,
          1.99904382e-01, 1.00886710e-01, 9.84609127e-02, 4.40411158e-02,
          8.87956992e-02, 4.47013862e-02, 9.02802944e-02, 1.04723737e-01,
          1.76061928e-01, 1.18663959e-01, 1.39385387e-02, 3.46667096e-02,
          2.06100382e-02, 1.98462643e-02, 4.64815758e-02, 7.56960213e-02,
          2.35096246e-01, 3.11075896e-01, 2.01143861e-01, 1.10635243e-01,
          1.11099847e-01, 6.80272356e-02, 5.59283793e-02, 1.86426088e-01,
          3.56553674e-01, 3.56553674e-01, 3.56553674e-01, 3.26938063e-01,
          3.17301452e-02, 6.32162094e-02, 3.94944400e-02, 3.56281176e-02,
          2.99060103e-02, 3.09486054e-02, 3.78405340e-02, 7.78240636e-02,
          6.63369447e-02, 1.62485018e-02, 2.91803088e-02, 1.97041370e-02,
          2.66096741e-02, 9.59022269e-02, 1.72553524e-01, 2.92826444e-01,
          3.35949689e-01, 1.71036765e-01, 3.90127301e-02, 1.92920379e-02,
          4.20031250e-02, 6.04134165e-02, 9.74903405e-02, 1.80298626e-01,
          1.77939326e-01, 2.86631793e-01, 2.37526506e-01, 6.15451112e-02,
          6.53345063e-02, 5.54136075e-02, 6.70757517e-02, 7.52689093e-02,
          9.86205041e-02, 2.61057884e-01, 3.35949689e-01, 3.35949689e-01,
          3.20275009e-01, 1.06553018e-01, 2.02079043e-01, 1.20984480e-01,
          1.51204571e-01, 1.95707411e-01, 2.00448170e-01, 1.90569937e-01,
          8.90782475e-02, 6.69081137e-02, 2.02739853e-02, 6.28988147e-02,
          1.04686819e-01, 1.64578587e-01, 2.33259141e-01, 2.83200353e-01,
          1.23872407e-01, 9.89964530e-02, 1.42471984e-01, 1.22550786e-01,
          2.29906484e-01, 2.83200353e-01, 6.87149391e-02, 8.68324265e-02,
          1.44532040e-01, 2.83200353e-01, 2.83200353e-01, 2.21958786e-01,
          4.39379886e-02, 1.81217074e-01, 9.50142443e-02, 8.90032798e-02,
          6.14793152e-02, 6.26661181e-02, 1.46225944e-01, 2.83200353e-01,
          1.51882440e-01, 9.21660513e-02, 1.62600756e-01, 1.21315278e-01,
          5.62110208e-02, 6.89688474e-02, 1.15996487e-01, 1.58201739e-01,
          2.57554919e-01, 2.99927771e-01, 1.47788793e-01, 5.33053987e-02,
          2.82133147e-02, 3.13347764e-02, 2.44886428e-02, 1.42254516e-01,
          2.71292031e-01, 2.99927771e-01, 2.17510954e-01, 2.34022632e-01,
          6.18765615e-02, 1.73262730e-02, 3.28569785e-02, 1.66506004e-02,
          6.65308237e-02, 2.47325689e-01, 2.99927771e-01, 2.99927771e-01,
          8.55056047e-02, 4.24632616e-02, 3.43443900e-02, 3.42633389e-02,
          2.44548079e-02, 1.14262052e-01, 2.99569339e-01, 2.99927771e-01,
          1.41206518e-01, 6.87541813e-02, 2.53408775e-02, 1.60559751e-02,
          4.29984229e-03, 2.89453827e-02, 9.20379311e-02, 1.93070933e-01,
          1.71974942e-01, 2.44699512e-02, 3.15648690e-02, 9.54666827e-03,
          3.88314226e-03, 4.35473919e-02, 1.68306276e-01, 2.76984900e-01,
          3.75395507e-01, 3.75395507e-01, 1.95161402e-02, 1.33662270e-02,
          6.33685803e-03, 4.35496541e-03, 4.47784085e-03, 1.02004204e-02,
          5.64557463e-02, 2.82277167e-01, 3.75395507e-01, 1.82554759e-02,
          6.74487697e-03, 3.43252113e-03, 3.94051895e-03, 7.65627576e-03,
          4.07459885e-02, 1.41345724e-01, 3.75395507e-01, 3.75395507e-01,
          3.22774202e-02, 5.56526100e-03, 3.47411959e-03, 4.18890361e-03,
          3.66288200e-02, 9.12043676e-02, 1.60159349e-01, 3.02318841e-01,
          3.06543320e-01, 8.01496655e-02, 4.41365391e-02, 2.17538793e-02,
          1.36120385e-02, 1.74925309e-02, 2.19426621e-02, 8.58506188e-02,
          3.06543320e-01, 3.06543320e-01, 2.33532488e-01, 8.61541778e-02,
          1.01799779e-01, 2.61081848e-02, 4.47055437e-02, 7.54619911e-02,
          1.34255603e-01, 3.06543320e-01, 3.06543320e-01, 1.04607128e-01,
          2.02794727e-02, 7.65682990e-03, 7.26523064e-03, 8.74166489e-02,
          9.47179720e-02, 1.66658312e-01, 3.06543320e-01, 3.06543320e-01,
          1.84541419e-01, 5.02288230e-02, 4.26335894e-02, 4.78252657e-02,
          1.61080547e-02, 2.37773731e-02, 8.01084936e-02, 2.99249262e-01,
          2.99249262e-01, 2.99249262e-01, 5.78232966e-02, 1.02914907e-01,
          2.25377474e-02, 2.09446866e-02, 2.25705616e-02, 4.41094525e-02,
          1.63380802e-01, 2.99249262e-01, 2.65412807e-01, 4.30157036e-02,
          4.38140444e-02, 1.54501069e-02, 6.72267154e-02, 4.50464450e-02,
          1.34825453e-01, 2.63039082e-01, 2.99249262e-01, 2.99249262e-01,
          7.13647529e-02, 5.41476384e-02, 6.09688573e-02, 2.55134925e-02,
          2.10860949e-02, 5.50053269e-02, 1.91428766e-01, 2.99249262e-01,
          2.99249262e-01, 8.62524882e-02, 2.40118466e-02, 2.10616514e-02,
          5.84048182e-02, 2.02930644e-02, 5.00615165e-02, 2.00288966e-01,
          4.00616944e-01, 3.13534945e-01, 1.35660723e-01, 4.43867669e-02,
          4.67250012e-02, 4.24761064e-02, 1.78988222e-02, 2.82552373e-02,
          2.12253794e-01, 4.00616944e-01, 1.49867967e-01, 6.32156804e-02,
          3.56702693e-02, 2.86513586e-02, 6.80901632e-02, 2.84241755e-02,
          5.46506122e-02, 9.49587375e-02, 4.00616944e-01, 1.91001192e-01,
          1.05775058e-01, 3.17917876e-02, 6.71581775e-02, 1.38409678e-02,
          1.24296201e-02, 2.89458800e-02, 1.28186151e-01, 4.00616944e-01,
          1.41508609e-01, 3.80884483e-02, 1.68468449e-02, 1.33363511e-02,
          4.20669978e-03, 1.55495724e-03, 7.28807691e-03, 1.35499701e-01,
          3.51596653e-01, 3.44787538e-02, 2.64355913e-03, 1.42954977e-03,
          3.04190349e-03, 1.00326367e-01, 4.73047346e-02, 4.58673388e-02,
          3.51596653e-01, 3.51596653e-01, 9.05225873e-02, 1.97355952e-02,
          4.34094854e-03, 1.94473322e-02, 6.92210812e-03, 6.29117014e-03,
          2.29827370e-02, 7.93882534e-02, 3.51596653e-01, 1.27688140e-01,
          2.65460443e-02, 1.29336668e-02, 1.38525059e-02, 2.50333190e-01,
          1.82361394e-01, 1.52452305e-01, 2.93473810e-01, 3.51596653e-01,
          2.70373404e-01, 1.36829302e-01, 7.07862079e-02, 9.45827141e-02,
          2.30406046e-01, 1.20711014e-01, 6.90953061e-02, 1.96528405e-01,
          2.63188154e-01, 5.48419692e-02, 1.45624327e-02, 9.94094741e-03,
          6.24823160e-02, 2.42240757e-01, 1.73427805e-01, 1.41540408e-01,
          1.93444252e-01, 1.23516217e-01, 3.93529832e-02, 8.83603469e-03,
          3.25450450e-02, 1.19961709e-01, 2.63188154e-01, 2.43763849e-01,
          1.75210446e-01, 2.09039867e-01, 1.97582543e-01, 1.00063838e-01,
          1.00531995e-01, 6.53165206e-02, 1.49611354e-01, 2.63188154e-01,
          2.63188154e-01, 2.63188154e-01, 2.63188154e-01, 1.48717433e-01,
          6.42357692e-02, 3.77385765e-02, 5.03626913e-02, 1.87375426e-01,
          9.68191400e-02, 1.00651935e-01, 1.60676599e-01, 1.74187973e-01,
          2.04369783e-01, 1.25790253e-01, 2.32049916e-02, 3.02748252e-02,
          1.02680430e-01, 1.90487076e-02, 2.75564287e-02, 6.95997700e-02,
          1.76417947e-01, 2.48615861e-01, 2.12577552e-01, 4.06787395e-02,
          1.14221955e-02, 3.87402251e-02, 2.48615861e-01, 2.48615861e-01,
          2.48615861e-01, 2.48615861e-01, 2.08871558e-01, 1.67792350e-01,
          2.82220393e-02, 7.35793635e-02, 2.26881981e-01, 1.66839719e-01,
          9.73758847e-02, 2.29938149e-01, 2.05347389e-01, 2.48615861e-01,
          1.86345965e-01, 8.00223053e-02, 1.76287949e-01, 2.48615861e-01,
          3.59996744e-02, 1.01754442e-02, 2.05808152e-02, 1.20812513e-01,
          3.60728681e-01, 7.99895450e-02, 2.72001754e-02, 1.29763344e-02,
          4.12935019e-02, 6.65000500e-03, 1.51759526e-02, 5.68841808e-02,
          2.37301052e-01, 3.60728681e-01, 8.26651827e-02, 1.74139608e-02,
          6.38123974e-03, 5.19536296e-03, 2.55084466e-02, 1.09264236e-02,
          1.82130244e-02, 1.85115978e-01, 3.60728681e-01, 9.90755558e-02,
          1.42948795e-02, 4.83048800e-03, 2.63182111e-02, 2.67107459e-03,
          2.18446702e-01, 3.60728681e-01, 3.60728681e-01, 3.60728681e-01,
          1.68772995e-01, 2.91319638e-02, 4.44240309e-03, 1.75118458e-03,
          8.30197334e-03, 4.86533381e-02, 1.55350521e-01, 8.85938480e-02,
          1.61942393e-01, 9.29790661e-02, 2.63031051e-02, 1.00936415e-02,
          1.07873622e-02, 1.61762506e-01, 2.70329505e-01, 3.00313085e-01,
          1.94912359e-01, 2.33322144e-01, 1.90895677e-01, 1.27260610e-01,
          7.45129958e-02, 7.85940289e-02, 5.58279175e-03, 2.67478943e-01,
          3.00313085e-01, 2.25940183e-01, 1.44339785e-01, 6.97370917e-02,
          2.12793909e-02, 2.85123778e-03, 2.94835377e-03, 1.35467336e-01,
          3.00313085e-01, 3.00313085e-01, 2.41081372e-01, 2.13879257e-01,
          1.32368743e-01, 1.17080189e-01, 4.87576760e-02, 7.34352320e-02,
          2.13314891e-01, 2.65081853e-01, 2.65081853e-01, 2.02768624e-01,
          8.33419189e-02, 6.53879642e-02, 9.78331640e-02, 7.48792663e-02,
          7.33886585e-02, 1.53927684e-01, 2.65081853e-01, 2.65081853e-01,
          2.65081853e-01, 7.05797374e-02, 4.75152321e-02, 4.08490561e-02,
          4.67028804e-02, 6.42944425e-02, 1.53209820e-01, 2.65081853e-01,
          2.65081853e-01, 1.83366761e-01, 1.34395450e-01, 9.19944644e-02,
          1.34889424e-01, 7.00974837e-02, 7.41053596e-02, 1.05224170e-01,
          2.65081853e-01, 2.65081853e-01, 2.21664518e-01, 6.02804720e-02,
          4.99297343e-02, 9.25413370e-02, 1.05898537e-01, 9.63357389e-02,
          2.53164858e-01, 2.56041020e-01, 2.56041020e-01, 2.24460483e-01,
          8.75599310e-02, 1.44580588e-01, 4.43421565e-02, 8.47866014e-02,
          2.30122969e-01, 2.56041020e-01, 1.06417887e-01, 2.56041020e-01,
          1.55108407e-01, 6.86020628e-02, 1.13002382e-01, 9.46009979e-02,
          1.80532724e-01, 2.56041020e-01, 1.01866603e-01, 2.35059068e-01,
          2.56041020e-01, 2.08006307e-01, 4.54601496e-02, 3.90458927e-02,
          8.55588615e-02, 1.09612368e-01, 1.65053606e-01, 1.23232685e-01,
          7.22436309e-02, 2.56041020e-01, 1.85803428e-01, 4.31830846e-02,
          1.90375187e-02, 2.54219398e-02, 2.98724901e-02, 1.45689547e-01 ]
      - [ 6.43636435e-02, 9.32252482e-02, 8.89251083e-02, 4.34703380e-02,
          4.03283983e-02, 7.57334232e-02, 3.03223841e-02, 1.13711236e-02,
          1.73326470e-02, 1.39871895e-01, 2.22873449e-01, 2.47509137e-01,
          1.00055076e-01, 7.28110969e-02, 1.43430889e-01, 5.63696474e-02,
          2.47181486e-02, 4.65101413e-02, 1.77572608e-01, 2.47944236e-01,
          2.55551398e-01, 2.52839178e-01, 2.45964408e-01, 2.28120551e-01,
          1.37180418e-01, 3.04685123e-02, 3.84233259e-02, 2.27620721e-01,
          2.55551398e-01, 2.55551398e-01, 2.55551398e-01, 2.55551398e-01,
          2.55551398e-01, 2.27199122e-01, 6.45227879e-02, 6.03357889e-02,
          1.67807877e-01, 2.04864055e-01, 2.81302184e-01, 9.27574486e-02,
          1.31774545e-01, 7.86996558e-02, 2.02351436e-02, 4.54756021e-02,
          1.14120930e-01, 1.88136593e-01, 1.12598099e-01, 2.84572184e-01,
          1.69311136e-01, 2.38150105e-01, 1.67130530e-01, 5.96568212e-02,
          1.43549144e-01, 2.02968314e-01, 1.59457818e-01, 1.85389191e-01,
          2.35061511e-01, 1.62350968e-01, 2.84572184e-01, 1.69548705e-01,
          5.83135784e-02, 4.73373756e-02, 7.16073588e-02, 1.10299431e-01,
          8.10724050e-02, 1.31767675e-01, 2.04647839e-01, 2.84572184e-01,
          2.08375126e-01, 7.71239176e-02, 1.06555827e-01, 1.04460701e-01,
          1.23935759e-01, 6.41883165e-02, 1.74094021e-01, 1.14152655e-01,
          1.95484683e-01, 2.74400920e-01, 1.77655652e-01, 1.91063493e-01,
          1.44331709e-01, 9.80159715e-02, 6.97338656e-02, 4.72490229e-02,
          9.67829004e-02, 2.90557206e-01, 2.90557206e-01, 1.96985736e-01,
          1.37917936e-01, 9.62461010e-02, 7.39299357e-02, 3.03478558e-02,
          5.89895658e-02, 1.15432501e-01, 2.90557206e-01, 2.66185194e-01,
          1.48381919e-01, 1.91324309e-01, 9.58635136e-02, 5.43686226e-02,
          2.50291862e-02, 2.87402123e-02, 1.11746572e-01, 2.90557206e-01,
          2.90557206e-01, 1.20344646e-01, 1.42145872e-01, 5.61416149e-02,
          9.43892822e-02, 5.39927520e-02, 2.66608112e-02, 9.45998654e-02,
          3.20816398e-01, 2.82799423e-01, 1.49580792e-01, 1.44851372e-01,
          2.49657080e-01, 2.71732584e-02, 1.18342917e-02, 9.49136354e-03,
          5.21462038e-03, 1.83963567e-01, 2.88294077e-01, 2.45344490e-01,
          1.00423068e-01, 1.74666375e-01, 4.47977595e-02, 2.66489796e-02,
          5.68597242e-02, 1.35105982e-01, 3.20816398e-01, 3.20816398e-01,
          7.30693638e-02, 8.21867883e-02, 8.34778398e-02, 1.98952146e-02,
          1.51339620e-02, 2.95364000e-02, 2.49034055e-02, 3.20816398e-01,
          3.20816398e-01, 8.88532028e-02, 3.74960341e-02, 4.01299894e-02,
          7.90255740e-02, 1.28300399e-01, 1.80451021e-01, 2.98802018e-01,
          3.57122868e-01, 1.21053435e-01, 6.52533397e-02, 1.73660237e-02,
          2.10528746e-02, 6.56438842e-02, 6.72806799e-02, 1.40935913e-01,
          2.35917538e-01, 3.57122868e-01, 2.44988903e-01, 1.16910860e-01,
          2.36782581e-02, 2.15077996e-02, 4.74959845e-03, 2.76065301e-02,
          5.26585318e-02, 2.30998516e-01, 3.57122868e-01, 1.05764925e-01,
          3.97576839e-02, 1.80355664e-02, 2.72444100e-03, 1.41981971e-02,
          2.37831064e-02, 8.26577693e-02, 1.70371205e-01, 3.57122868e-01,
          2.19308063e-01, 8.96924585e-02, 1.43092396e-02, 4.61770222e-03,
          3.42616066e-02, 2.86727622e-02, 5.36241233e-02, 1.19125947e-01,
          4.13289398e-01, 1.56715155e-01, 5.32409512e-02, 1.49129322e-02,
          9.76836961e-03, 2.46043038e-02, 1.72971673e-02, 7.49069527e-02,
          1.47054106e-01, 4.13289398e-01, 2.17658222e-01, 7.09367916e-02,
          4.29973155e-02, 1.70278270e-02, 1.85256787e-02, 1.16173588e-02,
          3.70451063e-02, 1.27350807e-01, 4.13289398e-01, 1.36287346e-01,
          4.94942516e-02, 7.20726140e-03, 4.97274473e-03, 1.08276214e-02,
          1.04237096e-02, 8.39877874e-02, 2.79020876e-01, 4.13289398e-01,
          1.96663246e-01, 1.33699507e-01, 4.75840978e-02, 7.74057442e-03,
          1.86776109e-02, 1.68969501e-02, 5.49007207e-02, 1.00103125e-01,
          3.75976175e-01, 2.19419554e-01, 7.38741979e-02, 7.67622292e-02,
          3.06114536e-02, 6.98660165e-02, 4.38057855e-02, 3.92782837e-02,
          1.06366225e-01, 3.75976175e-01, 3.03660959e-01, 6.58385232e-02,
          1.05789311e-01, 6.57236204e-02, 2.30907779e-02, 1.76977031e-02,
          6.69190660e-02, 1.93794325e-01, 3.75976175e-01, 1.86459571e-01,
          1.05367720e-01, 3.31863575e-02, 1.87566001e-02, 1.15900047e-01,
          1.04286291e-01, 8.47672597e-02, 1.74503610e-01, 3.75976175e-01,
          2.44016379e-01, 5.53741418e-02, 5.29459007e-02, 8.62293988e-02,
          1.04030132e-01, 5.31793833e-02, 7.33823553e-02, 1.37724191e-01,
          3.39532882e-01, 3.04531246e-01, 6.83237314e-02, 9.49066207e-02,
          8.25290084e-02, 2.18139123e-02, 9.38803889e-03, 2.82272194e-02,
          5.62079363e-02, 3.39532882e-01, 2.12376118e-01, 2.60411259e-02,
          1.84960905e-02, 1.36668347e-02, 1.66625604e-01, 1.39972135e-01,
          1.86940119e-01, 2.36042365e-01, 3.39532882e-01, 2.91646063e-01,
          8.19836110e-02, 6.95680007e-02, 1.07645042e-01, 3.24445143e-02,
          1.96950957e-02, 7.85468593e-02, 2.47950539e-01, 3.39532882e-01,
          1.30288601e-01, 2.68110950e-02, 1.10744638e-02, 1.69251952e-02,
          2.34299544e-02, 2.35936530e-02, 2.78400481e-02, 9.95395705e-02,
          2.87666440e-01, 1.51537314e-01, 3.89853232e-02, 1.32557675e-02,
          8.51224735e-03, 5.12530580e-02, 3.76852900e-02, 7.42525980e-02,
          1.64178222e-01, 2.87666440e-01, 2.02205047e-01, 9.57217291e-02,
          3.62322815e-02, 4.45296653e-02, 1.63435653e-01, 1.74490169e-01,
          1.20598383e-01, 1.56501129e-01, 2.87666440e-01, 2.36368790e-01,
          1.39083907e-01, 4.63354737e-02, 8.59183967e-02, 2.51946270e-01,
          2.54610866e-01, 2.37064719e-01, 2.21650079e-01, 2.15810984e-01,
          1.72343701e-01, 1.51906803e-01, 1.60668626e-01, 2.87666440e-01,
          4.91821170e-02, 1.45066315e-02, 3.24673280e-02, 1.17857993e-01,
          2.95034260e-01, 9.60180014e-02, 4.68260422e-02, 3.21210027e-02,
          3.73942479e-02, 3.52079868e-02, 2.14367229e-02, 3.37694436e-02,
          2.09151372e-01, 2.95034260e-01, 1.43207312e-01, 6.72474056e-02,
          2.22295243e-02, 1.16193406e-02, 1.88089535e-01, 1.26019508e-01,
          2.25787997e-01, 1.44180477e-01, 2.72638381e-01, 9.88876298e-02,
          2.03518555e-01, 1.81478694e-01, 2.73700953e-01, 2.02284425e-01,
          1.11751251e-01, 2.36188069e-01, 1.86172768e-01, 2.95034260e-01,
          1.88200265e-01, 1.80316865e-01, 1.50270194e-01, 2.03680441e-01,
          6.12544194e-02, 3.69829312e-02, 6.02786317e-02, 1.61838830e-01,
          3.07030261e-01, 1.63672924e-01, 7.10557923e-02, 8.81539192e-03,
          1.90657023e-02, 6.36693239e-02, 4.37882580e-02, 8.35596323e-02,
          1.72333583e-01, 3.07030261e-01, 1.62731797e-01, 3.18187401e-02,
          5.70877036e-03, 3.59056070e-02, 2.08051279e-01, 1.55358762e-01,
          2.45344818e-01, 2.33178735e-01, 3.07030261e-01, 2.11627305e-01,
          8.63954276e-02, 7.25775138e-02, 9.64829847e-02, 1.02953821e-01,
          9.81487036e-02, 2.01433629e-01, 3.07030261e-01, 3.07030261e-01,
          2.72519886e-01, 2.91404556e-02, 2.25561559e-02, 4.06680331e-02,
          4.49849479e-02, 6.09071106e-02, 1.02648757e-01, 2.21559539e-01,
          3.40624660e-01, 2.25269094e-01, 5.24642691e-02, 1.01921670e-02,
          3.80166285e-02, 1.18578142e-02, 1.10165784e-02, 4.25052643e-02,
          2.76579410e-01, 3.40624660e-01, 7.37609938e-02, 2.20332667e-02,
          2.64646835e-03, 1.05005205e-02, 1.98113248e-02, 5.51980361e-02,
          1.05354480e-01, 3.07276279e-01, 3.40624660e-01, 2.95524985e-01,
          5.54255210e-02, 4.63995598e-02, 2.73674931e-02, 9.65416711e-03,
          1.34108020e-02, 4.94593196e-02, 3.40624660e-01, 3.40624660e-01,
          7.48784319e-02, 2.10288391e-02, 1.73282754e-02, 1.09952157e-02,
          2.21210197e-01, 2.59598672e-01, 1.17192805e-01, 1.16398238e-01,
          2.18698725e-01, 1.57764450e-01, 1.59419313e-01, 7.81425163e-02,
          1.13519140e-01, 2.60072470e-01, 2.60072470e-01, 2.60072470e-01,
          1.51197866e-01, 1.30384862e-01, 1.14841029e-01, 1.17747359e-01,
          1.35070503e-01, 2.60072470e-01, 7.04779625e-02, 1.20700687e-01,
          4.20974530e-02, 8.80399942e-02, 1.59035519e-01, 9.95740369e-02,
          4.11012657e-02, 6.82999045e-02, 1.00115307e-01, 1.77939624e-01,
          2.60072470e-01, 2.60072470e-01, 1.06747001e-01, 1.41341224e-01,
          1.17406525e-01, 8.04138929e-02, 1.18810661e-01, 2.60072470e-01,
          1.59001470e-01, 2.31890410e-01, 2.43193194e-01, 1.10605530e-01,
          9.83300433e-02, 4.99275587e-02, 1.20933056e-01, 9.80636254e-02,
          1.94751039e-01, 2.26905107e-01, 2.36829162e-01, 2.43193194e-01,
          1.57832265e-01, 1.83491737e-01, 9.85389203e-02, 1.52458712e-01,
          1.60235137e-01, 2.22484797e-01, 2.02319086e-01, 2.43193194e-01,
          2.43193194e-01, 5.88313006e-02, 4.44737487e-02, 2.41423044e-02,
          3.90196219e-02, 5.23283295e-02, 2.03898817e-01, 2.12239608e-01,
          2.43193194e-01, 2.43193194e-01, 8.20826888e-02, 5.64083531e-02,
          2.56586131e-02, 5.71575016e-02, 8.60075876e-02, 2.09122062e-01,
          2.43779331e-01, 2.43779331e-01, 2.43779331e-01, 2.42936909e-01,
          1.89119339e-01, 1.05701871e-01, 9.04558450e-02, 1.47942856e-01,
          1.57407537e-01, 2.17549592e-01, 1.63039267e-01, 2.22536653e-01,
          2.43779331e-01, 2.43779331e-01, 1.72342837e-01, 3.50988731e-02,
          4.85725217e-02, 7.67582208e-02, 2.43779331e-01, 2.43779331e-01,
          2.29663476e-01, 1.21923029e-01, 4.93859798e-02, 3.29964757e-02,
          5.19908071e-02, 1.13459855e-01, 1.96299389e-01, 2.43779331e-01,
          1.45226166e-01, 1.36666894e-01, 9.52721611e-02, 5.69976680e-02,
          4.31732312e-02, 2.43380796e-02, 5.34102768e-02, 1.26747057e-01,
          1.49051487e-01, 1.19349688e-01, 2.05173627e-01, 2.99844325e-01,
          2.99844325e-01, 2.99844325e-01, 1.18600465e-01, 1.71533480e-01,
          1.24925204e-01, 1.13171875e-01, 4.70330417e-02, 1.81364551e-01,
          2.99844325e-01, 2.99844325e-01, 5.68856150e-02, 3.62545475e-02,
          7.79113099e-02, 6.62960857e-02, 2.08327144e-01, 1.37675971e-01,
          1.39706120e-01, 9.80518237e-02, 1.03611298e-01, 8.03483799e-02,
          6.31839111e-02, 1.15094528e-01, 1.61793038e-01, 2.64298797e-01,
          1.08875386e-01, 1.82002768e-01, 1.35817245e-01, 1.61859587e-01,
          2.27791630e-02, 2.33248398e-02, 7.13545680e-02, 1.70771748e-01 ]
      - [ 1.65928602e-01, 1.01949781e-01, 9.63172838e-02, 1.22159943e-01,
          2.17934117e-01, 2.43763253e-01, 9.47494358e-02, 7.67143667e-02,
          9.51431096e-02, 6.13861755e-02, 1.49724588e-01, 3.11473846e-01,
          2.73009419e-01, 1.11630090e-01, 8.48464742e-02, 3.49715985e-02,
          4.32624668e-02, 4.65843827e-02, 5.98848239e-02, 5.32764830e-02,
          4.47580330e-02, 7.80650005e-02, 1.20079316e-01, 8.94271433e-02,
          2.27953121e-02, 3.05676460e-02, 5.23607582e-02, 3.12124211e-02,
          2.05537647e-01, 3.74510020e-01, 3.74510020e-01, 3.74510020e-01,
          2.72373557e-01, 1.27595700e-02, 2.25399490e-02, 2.56027170e-02,
          1.85089335e-02, 1.31813571e-01, 2.45352194e-01, 1.33210808e-01,
          1.80841878e-01, 1.81061774e-02, 1.24116847e-02, 1.34728635e-02,
          1.56850573e-02, 6.42068461e-02, 2.26193637e-01, 3.21523786e-01,
          1.91644683e-01, 3.41632783e-01, 7.24369064e-02, 5.48468418e-02,
          3.08949966e-02, 4.81399558e-02, 5.36351372e-03, 1.26353458e-01,
          2.53863811e-01, 3.41632783e-01, 3.41632783e-01, 7.75734186e-02,
          1.19035123e-02, 7.23372772e-03, 5.78922639e-03, 1.34672159e-02,
          9.04828310e-02, 1.55094042e-01, 2.40373999e-01, 3.41632783e-01,
          1.01667225e-01, 6.79849386e-02, 3.25887203e-02, 2.51886640e-02,
          1.12670392e-01, 1.49028629e-01, 1.29838899e-01, 1.38845101e-01,
          2.87821472e-01, 2.41510823e-01, 6.54511824e-02, 3.38796079e-02,
          7.31941834e-02, 2.63637096e-01, 1.06912300e-01, 4.94326726e-02,
          2.87821472e-01, 2.87821472e-01, 2.87821472e-01, 8.32526758e-02,
          6.17042072e-02, 1.12751633e-01, 3.79539281e-02, 5.37271537e-02,
          5.49716540e-02, 2.19517186e-01, 2.87821472e-01, 1.61974102e-01,
          7.39571974e-02, 5.35578281e-02, 4.47812788e-02, 9.24238116e-02,
          1.17939577e-01, 5.12695462e-02, 2.87821472e-01, 2.87821472e-01,
          1.69205680e-01, 7.39014596e-02, 1.08976275e-01, 8.41715485e-02,
          1.72568426e-01, 1.28580108e-01, 5.72827645e-02, 2.62436718e-01,
          3.08219999e-01, 2.40846992e-01, 7.97676519e-02, 5.41864708e-02,
          1.01012655e-01, 4.75775339e-02, 5.90211563e-02, 4.69639003e-02,
          2.23519355e-01, 3.33027571e-01, 2.67861247e-01, 3.87424193e-02,
          3.64809670e-02, 8.21172744e-02, 7.05478564e-02, 1.17322333e-01,
          5.43336496e-02, 1.60637558e-01, 3.33027571e-01, 2.40779966e-01,
          7.22806677e-02, 8.86579752e-02, 7.43615106e-02, 9.97370295e-03,
          2.80570220e-02, 3.55839729e-02, 1.60236776e-01, 3.33027571e-01,
          2.84687757e-01, 2.25210078e-02, 1.46479299e-02, 7.10779568e-03,
          1.09911673e-02, 9.66723263e-03, 1.86251793e-02, 4.62160185e-02,
          9.05841514e-02, 2.69153900e-02, 5.20219188e-03, 1.15495780e-02,
          1.21477777e-02, 5.36196306e-03, 3.59840207e-02, 7.66324997e-02,
          4.79021996e-01, 4.79021996e-01, 1.65004373e-01, 2.05940357e-03,
          7.32994406e-03, 6.42294437e-03, 9.02697816e-03, 1.82987433e-02,
          3.87534350e-02, 7.54005834e-02, 1.19431354e-01, 2.78726611e-02,
          5.80467191e-03, 4.69198683e-03, 8.06907192e-03, 4.23515541e-03,
          7.25543266e-03, 2.21073162e-02, 4.79021996e-01, 4.79021996e-01,
          8.61780941e-02, 1.14170872e-02, 3.72300786e-03, 3.91604193e-03,
          9.46706627e-04, 2.56626997e-02, 4.61481810e-02, 3.85221601e-01,
          3.95787865e-01, 7.98431858e-02, 2.08815117e-03, 1.45433401e-03,
          1.07322435e-03, 9.50549264e-03, 1.76137090e-02, 2.66991872e-02,
          1.61828101e-01, 3.95787865e-01, 6.73787743e-02, 1.61744058e-02,
          1.23111745e-02, 1.20824436e-02, 8.05405993e-03, 2.00228835e-03,
          1.61445923e-02, 2.80719131e-01, 3.95787865e-01, 7.50895813e-02,
          1.57575384e-02, 1.18267722e-02, 1.66653302e-02, 1.35846794e-01,
          3.55411209e-02, 4.54912409e-02, 1.26981363e-01, 3.95787865e-01,
          1.20764054e-01, 6.02764972e-02, 9.87256467e-02, 1.67849392e-01,
          2.67088339e-02, 3.07308882e-02, 4.60625589e-02, 2.94106513e-01,
          2.94108003e-01, 7.27106184e-02, 2.77689304e-02, 3.54887471e-02,
          2.71784849e-02, 4.51362096e-02, 7.74733052e-02, 6.30521849e-02,
          2.94108003e-01, 2.94108003e-01, 1.30488977e-01, 6.11676723e-02,
          7.74259120e-02, 3.63459587e-02, 2.02426389e-01, 1.19317591e-01,
          1.45465255e-01, 2.94108003e-01, 2.94108003e-01, 8.31067860e-02,
          3.90102342e-02, 1.12461232e-01, 1.80485234e-01, 1.45005569e-01,
          1.32101804e-01, 1.38970390e-01, 2.94108003e-01, 2.94108003e-01,
          1.95340544e-01, 6.61952049e-02, 1.05126239e-01, 1.08281232e-01,
          3.26716788e-02, 7.49943405e-02, 5.30591793e-02, 1.05153091e-01,
          3.86996508e-01, 1.64021850e-01, 4.94756959e-02, 5.36615960e-02,
          2.76089255e-02, 1.07348040e-02, 2.17865780e-02, 2.94523351e-02,
          1.50813743e-01, 4.02550548e-01, 1.85127929e-01, 1.11063179e-02,
          1.46458428e-02, 7.44130835e-03, 1.11493558e-01, 8.81769508e-02,
          4.45555225e-02, 1.60198048e-01, 4.02550548e-01, 2.13575661e-01,
          4.64008600e-02, 6.60260841e-02, 7.90965706e-02, 4.25942987e-02,
          3.58162299e-02, 2.41752286e-02, 3.08180064e-01, 4.02550548e-01,
          2.05312535e-01, 8.66642967e-03, 1.47630870e-02, 1.74958631e-02,
          7.87154306e-03, 1.16679631e-02, 3.48103493e-02, 6.13252223e-02,
          1.04802698e-01, 2.92863864e-02, 9.29108355e-03, 4.71677585e-03,
          7.12519046e-03, 7.41402479e-03, 8.67602881e-03, 3.54925990e-02,
          2.21914232e-01, 5.55611551e-01, 2.01766744e-01, 3.93795185e-02,
          2.11264919e-02, 6.01138128e-03, 5.09622740e-03, 5.42233791e-03,
          2.29849312e-02, 3.29020210e-02, 1.07008830e-01, 1.93210393e-02,
          9.01375804e-03, 3.64070898e-03, 4.35883645e-03, 4.51155640e-02,
          5.44527136e-02, 1.10419393e-01, 1.29938841e-01, 5.55611551e-01,
          4.60416675e-01, 5.43116033e-02, 4.25520577e-02, 4.54761907e-02,
          2.04032343e-02, 2.13877857e-02, 6.55401796e-02, 1.36285573e-01,
          3.05589288e-01, 9.53576937e-02, 3.01954001e-02, 2.43572667e-02,
          3.14188227e-02, 2.71052420e-01, 9.04282331e-02, 2.06341699e-01,
          1.46766230e-01, 3.05589288e-01, 1.01358324e-01, 7.36072883e-02,
          1.54683203e-01, 3.05589288e-01, 5.13041764e-02, 7.95904770e-02,
          2.17804223e-01, 1.07057802e-01, 3.05589288e-01, 1.63771227e-01,
          2.74383873e-02, 3.42260227e-02, 3.30598727e-02, 1.62463665e-01,
          1.59986913e-01, 3.05589288e-01, 3.05589288e-01, 1.31689772e-01,
          8.84919018e-02, 6.48506954e-02, 7.85775334e-02, 1.75152838e-01,
          2.52788872e-01, 1.48730367e-01, 2.15611041e-01, 2.06977442e-01,
          1.26801565e-01, 6.37102649e-02, 2.67390255e-02, 1.14268355e-01,
          2.52788872e-01, 1.68824017e-01, 2.23350659e-01, 1.77417114e-01,
          2.42695063e-01, 2.03814939e-01, 1.24728486e-01, 3.10750268e-02,
          7.09543228e-02, 1.30941093e-01, 1.54698074e-01, 1.29977658e-01,
          2.52788872e-01, 2.52788872e-01, 8.17452595e-02, 9.16250423e-02,
          4.74508815e-02, 4.49954346e-02, 1.61331087e-01, 1.56072065e-01,
          2.52788872e-01, 2.52788872e-01, 2.52788872e-01, 1.46051690e-01,
          1.12457298e-01, 4.55618314e-02, 5.00915125e-02, 8.16284418e-02,
          1.06765829e-01, 1.60461172e-01, 1.17307067e-01, 2.19214693e-01,
          2.65615255e-01, 1.44715637e-01, 2.58541200e-02, 5.69312312e-02,
          9.34837610e-02, 4.04853597e-02, 4.74448241e-02, 1.12587281e-01,
          2.65615255e-01, 2.65615255e-01, 1.06141172e-01, 2.28790306e-02,
          4.86949198e-02, 5.61720021e-02, 1.84886619e-01, 2.65615255e-01,
          2.62529582e-01, 2.42010355e-01, 1.73947155e-01, 1.38571620e-01,
          7.40246400e-02, 8.71661827e-02, 1.29381388e-01, 1.58657655e-01,
          1.11807428e-01, 2.18534485e-01, 2.65615255e-01, 2.59021699e-01,
          8.71887133e-02, 1.02503613e-01, 1.55982003e-01, 2.05522582e-01,
          2.10725470e-03, 1.32796392e-02, 3.13836187e-02, 2.67576687e-02,
          4.61933948e-02, 1.48451393e-02, 1.63513478e-02, 6.59239106e-03,
          2.17799167e-03, 3.39324996e-02, 1.89199641e-01, 3.70127559e-01,
          1.90559208e-01, 3.70127559e-01, 1.93224981e-01, 3.16098295e-02,
          4.10791002e-02, 4.15006205e-02, 2.48976797e-03, 1.61976859e-01,
          2.60343850e-01, 1.09105214e-01, 1.27619937e-01, 3.07883918e-02,
          2.15076208e-02, 1.36633832e-02, 1.71482132e-03, 1.91046409e-02,
          3.70127559e-01, 3.70127559e-01, 3.70127559e-01, 2.30423838e-01,
          1.05079964e-01, 2.88025886e-02, 4.65477332e-02, 2.14992408e-02,
          6.57169372e-02, 1.67023748e-01, 2.84059674e-01, 1.68045312e-01,
          2.51963675e-01, 1.19052678e-01, 2.14122813e-02, 5.98171428e-02,
          5.21170944e-02, 7.86363184e-02, 2.00151071e-01, 2.84059674e-01,
          2.84059674e-01, 1.49086341e-01, 7.05577731e-02, 6.93612173e-02,
          9.94250923e-02, 5.47587648e-02, 3.99122983e-02, 2.84059674e-01,
          2.84059674e-01, 2.12511465e-01, 1.16922945e-01, 5.98684736e-02,
          3.25694047e-02, 7.40499571e-02, 4.34605032e-02, 9.49782357e-02,
          2.58307993e-01, 2.84059674e-01, 2.33692929e-01, 1.44095957e-01,
          8.76416788e-02, 8.31898525e-02, 1.62808761e-01, 1.11087561e-01,
          4.27447446e-02, 1.60464615e-01, 2.99135745e-01, 2.99135745e-01,
          9.21964794e-02, 7.35056028e-02, 6.71961308e-02, 3.78627107e-02,
          3.12869027e-02, 9.12320912e-02, 2.77819127e-01, 2.99135745e-01,
          2.85245478e-01, 1.02591589e-01, 8.06069821e-02, 5.50769083e-02,
          5.33917844e-02, 1.11647742e-02, 9.12712216e-02, 2.23707274e-01,
          2.99135745e-01, 1.89864635e-01, 9.30460170e-02, 8.37973282e-02,
          6.73029870e-02, 7.08395466e-02, 9.56222862e-02, 6.50100335e-02,
          2.71470487e-01, 2.99135745e-01, 2.63861537e-01, 9.40241367e-02,
          1.08566120e-01, 1.08869776e-01, 3.23618278e-02, 3.77120487e-02,
          1.67829901e-01, 3.08756322e-01, 3.08756322e-01, 2.22497135e-01,
          1.14529744e-01, 1.05666764e-01, 8.79831091e-02, 8.99977759e-02,
          7.60958716e-02, 1.90672740e-01, 1.74433202e-01, 3.08756322e-01,
          2.06554383e-01, 1.16114818e-01, 4.90504615e-02, 8.44887793e-02,
          1.03351332e-01, 1.50894538e-01, 4.97036576e-02, 2.75847912e-01,
          3.08756322e-01, 3.08756322e-01, 6.86191246e-02, 7.11094588e-02,
          8.45509842e-02, 3.16891819e-02, 2.35307422e-02, 3.18321995e-02,
          9.76032987e-02, 3.08756322e-01, 1.60918534e-01, 3.57799642e-02,
          1.35168843e-02, 1.06561910e-02, 1.09004481e-02, 1.60263032e-02 ]
      - [ 5.22784293e-02, 5.12775145e-02, 8.75975415e-02, 4.92187738e-02,
          7.25802854e-02, 1.64309870e-02, 9.07345023e-03, 1.46302609e-02,
          6.14352338e-02, 8.64740908e-02, 8.44469517e-02, 1.02167360e-01,
          1.28396630e-01, 1.17511615e-01, 4.75039855e-02, 5.43344058e-02,
          1.11320458e-01, 1.37385249e-01, 1.25036269e-01, 2.43136257e-01,
          3.00034463e-01, 3.00034463e-01, 3.00034463e-01, 8.02152529e-02,
          1.85855888e-02, 5.56711182e-02, 1.23144262e-01, 1.29221708e-01,
          2.68764853e-01, 3.00034463e-01, 3.00034463e-01, 3.00034463e-01,
          1.73252493e-01, 1.02314711e-01, 2.12846190e-01, 2.55889207e-01,
          9.71377268e-02, 3.61357406e-02, 5.31839840e-02, 7.66010508e-02,
          1.07710376e-01, 7.27103949e-02, 7.82253072e-02, 1.53686091e-01,
          1.05271377e-01, 2.55100161e-01, 3.37849408e-02, 1.44906148e-01,
          7.41615966e-02, 2.22567156e-01, 6.12277240e-02, 6.26657456e-02,
          1.08732760e-01, 2.01065332e-01, 1.88578174e-01, 8.99861902e-02,
          9.25431699e-02, 2.55100161e-01, 2.55100161e-01, 2.22085565e-01,
          1.56563014e-01, 2.55100161e-01, 2.54985392e-01, 2.55100161e-01,
          1.13635316e-01, 1.10681862e-01, 1.33432418e-01, 2.55100161e-01,
          1.80453822e-01, 1.40805781e-01, 2.03069925e-01, 2.55100161e-01,
          2.37834975e-01, 4.01864722e-02, 9.08304155e-02, 6.05198666e-02,
          1.45419568e-01, 7.61803985e-02, 8.09321627e-02, 1.08138599e-01,
          2.47743532e-01, 1.06375866e-01, 4.92928103e-02, 5.65390475e-02,
          9.26350504e-02, 2.40669072e-01, 1.97614506e-01, 1.63495511e-01,
          1.59015968e-01, 2.36643717e-01, 2.47743532e-01, 1.32365599e-01,
          1.64731413e-01, 1.57183066e-01, 2.47743532e-01, 1.58303544e-01,
          7.96845406e-02, 1.10326052e-01, 1.85569048e-01, 1.86615229e-01,
          1.43856809e-01, 2.35129416e-01, 2.47743532e-01, 2.47743532e-01,
          2.47743532e-01, 1.00462243e-01, 7.42985383e-02, 9.82952118e-02,
          9.51672122e-02, 3.60535309e-02, 3.88379507e-02, 1.13036908e-01,
          3.35877866e-01, 3.35877866e-01, 2.05974326e-01, 2.69801825e-01,
          2.00977117e-01, 2.15774421e-02, 2.95757956e-04, 9.50618472e-04,
          1.05747692e-02, 1.13920182e-01, 1.52425691e-01, 1.16782114e-01,
          1.22002773e-01, 6.21861815e-02, 6.48652688e-02, 8.42784420e-02,
          1.51804417e-01, 3.11385453e-01, 3.35877866e-01, 3.35877866e-01,
          1.18189976e-01, 8.09270367e-02, 6.75973445e-02, 9.01024137e-03,
          6.12483243e-04, 2.44937884e-03, 3.47622372e-02, 2.94765413e-01,
          2.07674935e-01, 7.83817023e-02, 4.37369794e-02, 1.35890096e-02,
          2.84069739e-02, 8.12933296e-02, 1.83751807e-01, 2.37890527e-01,
          3.68029207e-01, 1.08426750e-01, 1.43671026e-02, 1.79565251e-02,
          2.50593014e-02, 3.62056680e-02, 8.23603496e-02, 1.24341719e-01,
          2.56769836e-01, 3.68029207e-01, 1.51833907e-01, 6.57960847e-02,
          6.86156377e-02, 6.40068427e-02, 1.86455622e-02, 7.35100592e-03,
          1.57441460e-02, 1.91804975e-01, 3.68029207e-01, 2.96917766e-01,
          2.09565666e-02, 1.14234211e-03, 7.06295483e-03, 4.46093976e-02,
          1.64473411e-02, 8.79118666e-02, 1.67711288e-01, 3.68029207e-01,
          2.14442909e-01, 7.44789913e-02, 4.26270142e-02, 2.50404943e-02,
          1.02963500e-01, 5.85208088e-02, 7.43897036e-02, 1.63640112e-01,
          2.45498702e-01, 1.43015683e-01, 1.18959613e-01, 1.05479203e-01,
          1.35268658e-01, 2.45498702e-01, 1.38783336e-01, 5.15278727e-02,
          7.13241994e-02, 1.94201127e-01, 1.36442378e-01, 1.23616241e-01,
          1.19038828e-01, 2.45498702e-01, 1.26420230e-01, 6.51830658e-02,
          2.11331233e-01, 1.46811932e-01, 2.45498702e-01, 1.26999348e-01,
          1.59677193e-01, 1.08364388e-01, 1.07518576e-01, 2.45498702e-01,
          2.12978512e-01, 2.30986163e-01, 1.31215811e-01, 1.84555724e-01,
          1.50191560e-01, 1.69065893e-01, 2.45498702e-01, 2.45498702e-01,
          2.65740007e-01, 1.34500772e-01, 7.88601413e-02, 7.60350823e-02,
          1.66511580e-01, 1.43026635e-01, 5.02475277e-02, 1.14849977e-01,
          2.35623866e-01, 1.97660908e-01, 6.96079805e-02, 1.11281157e-01,
          1.40312403e-01, 2.65740007e-01, 1.71830833e-01, 2.98982691e-02,
          7.44928345e-02, 8.46646428e-02, 2.65740007e-01, 2.61111468e-01,
          1.13231681e-01, 6.77460954e-02, 1.98667601e-01, 1.30757660e-01,
          8.85474756e-02, 2.65243888e-01, 2.65740007e-01, 2.09630147e-01,
          1.26304537e-01, 6.23706095e-02, 9.35895890e-02, 2.65740007e-01,
          1.64578736e-01, 6.59981072e-02, 1.32080764e-01, 1.83954850e-01,
          3.48705575e-02, 3.13592255e-02, 8.24906379e-02, 2.22153723e-01,
          4.25125748e-01, 2.81774908e-01, 3.31794061e-02, 2.94039249e-02,
          1.40866805e-02, 4.49392619e-03, 4.88043018e-03, 1.65900402e-02,
          7.19497055e-02, 3.51785213e-01, 9.52012390e-02, 1.89855080e-02,
          4.39778343e-03, 2.89120246e-03, 1.63829345e-02, 3.42200622e-02,
          4.58602570e-02, 2.61023760e-01, 4.25125748e-01, 2.65454829e-01,
          3.63676660e-02, 4.48929593e-02, 2.07608175e-02, 5.19177690e-03,
          1.50039112e-02, 6.20002374e-02, 1.65352121e-01, 4.20936495e-01,
          3.35152335e-02, 2.05888110e-03, 5.43697854e-04, 2.81183026e-03,
          5.79207800e-02, 6.14820234e-03, 7.07492093e-03, 8.70693401e-02,
          2.66562909e-01, 2.66562909e-01, 1.10515721e-01, 4.38068621e-02,
          5.97949922e-02, 5.69532216e-02, 2.94621773e-02, 6.34769350e-02,
          7.59070367e-02, 2.66562909e-01, 2.01755613e-01, 1.45121947e-01,
          7.85209090e-02, 7.72366226e-02, 2.66562909e-01, 3.48121822e-02,
          1.38674509e-02, 4.72159646e-02, 2.66562909e-01, 2.55866200e-01,
          2.37198293e-01, 1.39531687e-01, 1.94397897e-01, 2.13778675e-01,
          1.12037301e-01, 1.05328232e-01, 8.69833827e-02, 1.97932795e-01,
          1.77963138e-01, 2.66562909e-01, 2.30279222e-01, 2.66562909e-01,
          9.60056111e-02, 9.62460637e-02, 2.03905731e-01, 1.09587386e-01,
          2.33463868e-01, 1.37532696e-01, 8.63326341e-02, 7.14026019e-02,
          1.11123778e-01, 2.33463868e-01, 1.77395418e-01, 2.23410934e-01,
          1.24407679e-01, 1.84935987e-01, 1.30804136e-01, 7.25227892e-02,
          1.87299877e-01, 2.33463868e-01, 1.31563634e-01, 1.91746384e-01,
          2.05296114e-01, 1.36341676e-01, 1.96162894e-01, 1.19833976e-01,
          1.04022242e-01, 1.19711757e-01, 2.11984292e-01, 2.33463868e-01,
          2.33463868e-01, 2.33463868e-01, 1.76461160e-01, 1.67360589e-01,
          1.07636169e-01, 3.31561081e-02, 8.02799910e-02, 2.24105164e-01,
          2.42537454e-01, 1.73864126e-01, 9.95136052e-02, 6.99975342e-02,
          1.73397407e-01, 9.12411958e-02, 1.31906688e-01, 2.19897762e-01,
          2.42537454e-01, 1.20625421e-01, 8.50462094e-02, 6.03456050e-02,
          8.39343071e-02, 2.42537454e-01, 1.51182443e-01, 2.22856015e-01,
          1.43115923e-01, 1.27662718e-01, 2.42537454e-01, 1.70030177e-01,
          2.11664349e-01, 1.36655748e-01, 1.10469557e-01, 9.19875205e-02,
          1.24124236e-01, 9.56927389e-02, 1.55117899e-01, 1.07322961e-01,
          5.21105677e-02, 2.42537454e-01, 2.14597106e-01, 2.42537454e-01,
          1.97461411e-01, 2.42537454e-01, 1.29903927e-01, 1.30491063e-01,
          9.44775995e-03, 2.08042320e-02, 6.72137663e-02, 2.04793438e-01,
          3.49650294e-01, 2.07985789e-01, 1.61842197e-01, 5.88663816e-02,
          1.02387890e-02, 5.48549555e-03, 9.26632341e-03, 3.97891514e-02,
          1.32706031e-01, 3.02791476e-01, 1.80199221e-02, 3.13432794e-03,
          7.46082806e-04, 4.75982949e-03, 6.92960396e-02, 6.82897940e-02,
          3.49650294e-01, 3.49650294e-01, 3.49650294e-01, 2.66229928e-01,
          2.73723215e-01, 1.12013504e-01, 1.17717996e-01, 1.97242796e-02,
          1.71739869e-02, 4.71736044e-02, 1.52255639e-01, 2.59251893e-01,
          2.40883082e-02, 1.54153612e-02, 7.58197298e-03, 1.68189257e-02,
          2.72825092e-01, 5.16749397e-02, 3.62144262e-02, 1.28069520e-01,
          2.72825092e-01, 1.48828715e-01, 1.74797639e-01, 1.28476650e-01,
          1.90053180e-01, 2.72825092e-01, 1.61869690e-01, 1.42638803e-01,
          1.82973042e-01, 2.72825092e-01, 1.78048715e-01, 2.72825092e-01,
          2.72825092e-01, 2.72825092e-01, 2.67267246e-02, 1.39432717e-02,
          2.87950430e-02, 1.97123185e-01, 2.72825092e-01, 2.85098180e-02,
          1.44126285e-02, 2.00623907e-02, 4.56230678e-02, 1.09712094e-01,
          4.87313233e-02, 6.80992007e-02, 8.49833935e-02, 1.82686120e-01,
          3.52635011e-02, 7.45594054e-02, 1.17908530e-01, 1.99781373e-01,
          2.88007826e-01, 2.22358003e-01, 1.59288675e-01, 1.31982252e-01,
          1.43875763e-01, 9.19978619e-02, 1.61846980e-01, 2.22557858e-01,
          2.88007826e-01, 2.88007826e-01, 2.88007826e-01, 2.88007826e-01,
          1.40462622e-01, 1.01689078e-01, 5.34740873e-02, 3.81622463e-02,
          9.67955738e-02, 2.88007826e-01, 2.02405453e-01, 9.21028256e-02,
          3.75323296e-02, 2.79626027e-02, 5.09706587e-02, 2.22738329e-02,
          6.30811155e-02, 9.32028964e-02, 1.95359632e-01, 2.80490994e-01,
          1.75824344e-01, 1.05903059e-01, 1.32944733e-02, 2.52056532e-02,
          1.38594946e-02, 1.99267101e-02, 3.34363915e-02, 1.72217637e-01,
          2.90396839e-01, 2.90396839e-01, 2.90396839e-01, 1.74983367e-01,
          7.28496313e-02, 5.59786260e-02, 8.72967765e-02, 1.24902315e-01,
          2.90396839e-01, 2.90396839e-01, 1.16673931e-01, 2.90396839e-01,
          2.89862663e-01, 1.12683766e-01, 1.42262176e-01, 2.25969970e-01,
          1.90951571e-01, 2.90396839e-01, 1.46490172e-01, 1.22870855e-01,
          1.03364371e-01, 1.75548699e-02, 3.55040655e-02, 2.12098639e-02,
          2.56584566e-02, 4.27058265e-02, 1.38326958e-01, 9.23192650e-02,
          4.34891023e-02, 3.33121382e-02, 2.09712107e-02, 6.28567711e-02,
          1.81637183e-02, 4.36717533e-02, 6.39690682e-02, 1.82457283e-01,
          1.53424695e-01, 9.71165001e-02, 2.93059826e-01, 2.93059826e-01,
          2.73894936e-01, 1.36375114e-01, 1.98810980e-01, 1.59896314e-01,
          2.74994940e-01, 3.47952358e-02, 2.14421526e-02, 6.08641282e-02,
          1.07836157e-01, 1.25850916e-01, 1.16611375e-02, 2.18481682e-02,
          1.50449881e-02, 3.31788883e-02, 1.68915391e-01, 1.50419697e-01,
          1.35494485e-01, 4.22235169e-02, 1.19554900e-01, 1.49834855e-02,
          5.10265492e-02, 7.67709315e-02, 2.84812897e-01, 2.93059826e-01,
          2.76969016e-01, 2.93059826e-01, 4.11055982e-02, 6.75658658e-02,
          6.37853611e-03, 2.33338568e-02, 8.11235011e-02, 2.93059826e-01 ]
      - [ 3.09648234e-02, 2.34019142e-02, 6.54309317e-02, 9.14403796e-02,
          1.41551405e-01, 8.98404941e-02, 4.63530235e-02, 3.40607576e-02,
          3.14353295e-02, 1.38563989e-02, 5.41111082e-02, 2.42186278e-01,
          3.30295861e-01, 3.94230366e-01, 1.63984135e-01, 1.32781371e-01,
          3.03858574e-02, 1.83795635e-02, 1.57712493e-02, 2.69800201e-02,
          5.69129549e-02, 1.51943207e-01, 2.64217764e-01, 1.86167538e-01,
          9.69027951e-02, 4.94761765e-02, 2.30830126e-02, 1.05228862e-02,
          4.78076711e-02, 2.17154846e-01, 3.94230366e-01, 3.94230366e-01,
          2.02029631e-01, 8.57709274e-02, 1.53776869e-01, 3.29746827e-02,
          4.04517539e-02, 1.22848280e-01, 2.43237495e-01, 2.81363547e-01,
          3.65322292e-01, 1.18456475e-01, 1.21770464e-01, 1.13529088e-02,
          2.02237442e-02, 1.98319331e-01, 2.29302943e-01, 1.14168070e-01,
          1.05940610e-01, 1.79719210e-01, 4.26583216e-02, 4.81126159e-02,
          1.88009143e-02, 6.87232763e-02, 2.75166705e-02, 6.53254241e-02,
          1.47406653e-01, 3.65322292e-01, 3.65322292e-01, 1.15074292e-01,
          3.59192975e-02, 4.60387692e-02, 2.64709312e-02, 9.76327509e-02,
          1.45573661e-01, 7.55327791e-02, 1.59892246e-01, 3.65322292e-01,
          5.02101034e-02, 6.03295714e-02, 5.91335967e-02, 6.79462254e-02,
          2.56962806e-01, 2.49223173e-01, 6.34106398e-02, 6.09436259e-02,
          3.99197266e-02, 6.10654727e-02, 3.87215279e-02, 6.22117855e-02,
          1.46308497e-01, 2.45756969e-01, 1.77796453e-01, 1.55563548e-01,
          1.66318536e-01, 1.51454464e-01, 1.98996961e-01, 1.79036304e-01,
          1.83046192e-01, 2.40285560e-01, 1.65327534e-01, 2.43934482e-01,
          8.35451484e-02, 1.22270584e-01, 6.13454469e-02, 7.57331178e-02,
          9.69308764e-02, 1.11622296e-01, 1.58931553e-01, 1.45501405e-01,
          1.35267273e-01, 8.90820995e-02, 1.29878297e-01, 1.51178926e-01,
          2.30424985e-01, 2.52711028e-01, 2.53486723e-01, 2.56962806e-01,
          1.52156845e-01, 1.42079294e-01, 1.54850140e-01, 2.06480742e-01,
          1.77509606e-01, 1.04863599e-01, 1.35040566e-01, 1.16557665e-01,
          1.60788879e-01, 2.51739770e-01, 1.30130723e-01, 1.22346796e-01,
          1.32906735e-01, 1.50580734e-01, 9.68315899e-02, 9.92829427e-02,
          2.51739770e-01, 2.51739770e-01, 9.26307067e-02, 9.43429992e-02,
          7.36023113e-02, 1.52160719e-01, 2.06075162e-01, 2.13691264e-01,
          1.93534553e-01, 1.59347832e-01, 1.50155947e-01, 2.28830293e-01,
          1.35587797e-01, 9.45573896e-02, 2.51739770e-01, 2.51739770e-01,
          1.83586761e-01, 9.55860093e-02, 1.12015568e-01, 1.56076774e-01,
          1.86075885e-02, 3.30889970e-02, 3.39635722e-02, 7.49411434e-02,
          2.00585991e-01, 1.67647272e-01, 5.91976307e-02, 3.20885479e-02,
          2.50175353e-02, 8.59969389e-03, 5.25575727e-02, 8.49540085e-02,
          3.76574665e-01, 3.76574665e-01, 2.32472777e-01, 3.25745232e-02,
          7.91837275e-02, 2.46001668e-02, 3.81069370e-02, 4.34834994e-02,
          3.84569317e-02, 1.21426679e-01, 2.40813464e-01, 1.68474212e-01,
          7.09119067e-02, 3.74145620e-02, 5.19729890e-02, 2.29707230e-02,
          5.96790239e-02, 7.79411569e-02, 3.68120164e-01, 3.76574665e-01,
          3.76574665e-01, 1.10090867e-01, 3.42276320e-02, 3.49413417e-02,
          1.88281853e-02, 5.16287424e-02, 5.16744144e-02, 3.37872088e-01,
          3.41870785e-01, 1.49940386e-01, 8.59047659e-03, 3.67969163e-02,
          1.72087867e-02, 5.80975562e-02, 8.86888951e-02, 5.11993282e-02,
          1.28796995e-01, 3.01737845e-01, 7.58637041e-02, 8.98674279e-02,
          1.01648174e-01, 3.90361324e-02, 2.92979553e-02, 2.87392158e-02,
          2.98486110e-02, 2.33156025e-01, 3.41870785e-01, 3.41870785e-01,
          8.43112394e-02, 1.39161125e-01, 8.33800808e-02, 9.96741503e-02,
          7.28154182e-02, 3.87444124e-02, 9.70419049e-02, 2.66926527e-01,
          1.75819546e-01, 1.12871602e-01, 2.49325931e-01, 2.47253895e-01,
          9.57937241e-02, 1.37112498e-01, 7.69101903e-02, 1.02268182e-01,
          9.50667635e-02, 1.01869047e-01, 2.12015405e-01, 1.99715540e-01,
          8.26661736e-02, 8.34770650e-02, 9.90147665e-02, 1.10598274e-01,
          1.33741543e-01, 2.04836965e-01, 1.75399691e-01, 1.49872795e-01,
          1.15967102e-01, 1.01011671e-01, 1.96018577e-01, 1.94752574e-01,
          1.11737028e-01, 5.90616763e-02, 1.14642531e-01, 1.37365520e-01,
          2.61815280e-01, 2.61815280e-01, 2.61815280e-01, 2.14365453e-01,
          2.61815280e-01, 1.98481932e-01, 1.58893287e-01, 1.54011920e-01,
          1.36587873e-01, 1.55898049e-01, 2.26542309e-01, 2.21579015e-01,
          5.50519787e-02, 8.79021659e-02, 1.10985018e-01, 1.65567651e-01,
          2.91806251e-01, 2.30115399e-01, 1.17845200e-01, 7.55742937e-02,
          6.79155216e-02, 8.81473795e-02, 1.66118696e-01, 1.25654995e-01,
          2.91806251e-01, 2.91806251e-01, 1.78382352e-01, 7.87456185e-02,
          7.04984739e-02, 8.48042369e-02, 1.10792488e-01, 1.63848653e-01,
          1.77418619e-01, 2.40313709e-01, 2.91806251e-01, 2.14680001e-01,
          5.77258058e-02, 4.25103977e-02, 8.94327015e-02, 3.79028805e-02,
          1.12054095e-01, 7.66056255e-02, 2.91806251e-01, 2.91806251e-01,
          2.11051300e-01, 5.15771993e-02, 3.37091088e-02, 3.76038738e-02,
          5.72609678e-02, 3.04771923e-02, 5.89049943e-02, 1.35661975e-01,
          2.51774073e-01, 1.29982173e-01, 8.95600468e-02, 3.47914249e-02,
          5.71111701e-02, 6.34157211e-02, 5.67935072e-02, 1.69969514e-01,
          2.82552272e-01, 2.82552272e-01, 2.82552272e-01, 2.79494703e-01,
          6.90744743e-02, 6.10818714e-02, 4.58954200e-02, 2.09973548e-02,
          5.05005270e-02, 8.14660713e-02, 2.82552272e-01, 9.58123356e-02,
          4.77404110e-02, 2.42966432e-02, 3.47531997e-02, 1.08620077e-01,
          8.98949280e-02, 2.82220483e-01, 2.82552272e-01, 2.82552272e-01,
          2.59323448e-01, 2.02243909e-01, 1.81288794e-01, 1.04923598e-01,
          7.67262354e-02, 5.27562276e-02, 9.61181447e-02, 2.25407958e-01,
          2.51085341e-01, 2.51085341e-01, 1.77512959e-01, 2.03323618e-01,
          1.11139446e-01, 1.41029075e-01, 1.31199747e-01, 6.24837279e-02,
          7.24497139e-02, 1.01313703e-01, 1.18044540e-01, 9.30051953e-02,
          2.51085341e-01, 2.51085341e-01, 1.51936948e-01, 9.31755826e-02,
          1.96331978e-01, 2.51085341e-01, 1.66712120e-01, 1.67202026e-01,
          1.39149547e-01, 1.54282272e-01, 1.31158635e-01, 1.62317872e-01,
          2.48263985e-01, 2.51085341e-01, 1.72891676e-01, 1.13882884e-01,
          8.32106695e-02, 9.08867419e-02, 1.26316503e-01, 1.94392696e-01,
          1.74404785e-01, 1.81847095e-01, 1.04019359e-01, 3.54300477e-02,
          7.68152177e-02, 9.23072696e-02, 1.10895321e-01, 2.53948599e-01,
          2.53948599e-01, 2.32023537e-01, 1.92869544e-01, 9.10505578e-02,
          4.97368500e-02, 6.47139847e-02, 1.13315135e-01, 1.29919082e-01,
          1.92856207e-01, 2.11720824e-01, 1.56119093e-01, 2.53948599e-01,
          2.53948599e-01, 1.57153502e-01, 1.48556530e-01, 9.15254205e-02,
          6.33655712e-02, 1.34923354e-01, 1.96594939e-01, 2.12106884e-01,
          2.08351091e-01, 1.89336538e-01, 1.59002364e-01, 1.11165076e-01,
          1.16733417e-01, 1.27171010e-01, 2.13354200e-01, 2.04712003e-01,
          1.37150317e-01, 9.70763788e-02, 4.43951227e-02, 5.77994920e-02,
          1.85847715e-01, 2.22747698e-01, 1.23677321e-01, 1.26616627e-01,
          1.60126641e-01, 4.49061580e-02, 2.26953644e-02, 3.77325341e-02,
          2.02442080e-01, 2.74409801e-01, 2.35356241e-01, 8.30796063e-02,
          1.21059060e-01, 1.29382998e-01, 1.97975889e-01, 1.09352559e-01,
          7.17549846e-02, 8.14684257e-02, 1.20530248e-01, 1.64629340e-01,
          1.92938045e-01, 2.74409801e-01, 2.74409801e-01, 1.88567862e-01,
          6.61042556e-02, 1.06638491e-01, 1.39521673e-01, 2.14828148e-01,
          1.83828086e-01, 1.22280449e-01, 2.74409801e-01, 2.74409801e-01,
          1.06933285e-02, 1.62482206e-02, 2.54268199e-02, 4.42029275e-02,
          2.42080763e-01, 4.61234413e-02, 9.44030378e-03, 9.20875650e-03,
          8.27478617e-03, 1.11537896e-01, 2.01372147e-01, 3.55368733e-01,
          2.58666068e-01, 2.07968846e-01, 1.03923798e-01, 6.35811612e-02,
          1.36893123e-01, 8.12894851e-02, 2.48813583e-03, 1.16225399e-01,
          1.85587838e-01, 1.18437558e-01, 3.07076573e-01, 5.44136167e-02,
          9.12075117e-03, 3.47612519e-03, 1.33704219e-03, 5.15107214e-02,
          3.55368733e-01, 3.55368733e-01, 3.55368733e-01, 2.29217187e-01,
          8.46815929e-02, 4.21970785e-02, 1.86007675e-02, 1.33671341e-02,
          1.96301594e-01, 1.69407547e-01, 2.56456196e-01, 1.93949595e-01,
          2.11501479e-01, 8.48723203e-02, 1.01356365e-01, 1.01849087e-01,
          1.23350695e-01, 2.11727247e-01, 2.30028778e-01, 2.56456196e-01,
          1.40386030e-01, 1.63895145e-01, 8.17301422e-02, 1.12731874e-01,
          6.85507581e-02, 1.21860005e-01, 1.18459210e-01, 2.56456196e-01,
          2.56456196e-01, 2.39420995e-01, 2.23211825e-01, 5.74749485e-02,
          6.18430674e-02, 3.98480408e-02, 6.41458780e-02, 1.73185274e-01,
          1.64813325e-01, 2.56456196e-01, 1.35279357e-01, 1.71191752e-01,
          1.08196646e-01, 9.05604288e-02, 1.08752936e-01, 1.48943320e-01,
          1.47234261e-01, 2.61574566e-01, 2.61574566e-01, 1.60656646e-01,
          1.28025964e-01, 6.93708509e-02, 5.58820851e-02, 6.53268173e-02,
          9.77744386e-02, 1.26194701e-01, 2.25420609e-01, 2.61574566e-01,
          2.27926910e-01, 9.78318453e-02, 7.90796280e-02, 7.70105049e-02,
          1.64277449e-01, 1.33415297e-01, 1.12828590e-01, 1.55443639e-01,
          2.61574566e-01, 1.28891811e-01, 9.54735205e-02, 1.19167030e-01,
          1.29599482e-01, 1.81581765e-01, 1.76817998e-01, 9.54311937e-02,
          1.65511250e-01, 2.32588813e-01, 2.10381612e-01, 7.33097717e-02,
          1.26909241e-01, 1.74416423e-01, 2.61574566e-01, 1.99476346e-01,
          1.72001764e-01, 2.34539896e-01, 2.57176429e-01, 2.24471509e-01,
          9.67477709e-02, 1.06305607e-01, 1.09813720e-01, 2.40751967e-01,
          2.57176429e-01, 1.64027646e-01, 1.13768004e-01, 1.61144540e-01,
          9.96172279e-02, 7.28584751e-02, 8.45595598e-02, 5.51833138e-02,
          1.97941452e-01, 2.57176429e-01, 1.51947320e-01, 2.01300904e-01,
          2.42691681e-01, 2.57042676e-01, 1.16412237e-01, 1.11786030e-01,
          1.26396492e-01, 2.57176429e-01, 2.57176429e-01, 9.37127694e-02,
          7.47083426e-02, 1.55854136e-01, 1.19367883e-01, 1.03294976e-01,
          5.45720868e-02, 2.94290148e-02, 4.04742695e-02, 1.04812212e-01 ]
      - [ 1.36327803e-01, 1.97520703e-01, 2.41771653e-01, 1.58482835e-01,
          1.56203449e-01, 6.29889071e-02, 3.87736261e-02, 1.07923932e-01,
          2.00333506e-01, 1.15561128e-01, 1.64268687e-01, 1.47374049e-01,
          2.33315378e-01, 2.40610093e-01, 1.68299720e-01, 5.57153337e-02,
          1.03334926e-01, 7.62505531e-02, 3.92971374e-02, 1.68960467e-01,
          2.92418927e-01, 2.92418927e-01, 2.92418927e-01, 6.49952218e-02,
          1.79845653e-02, 5.56221940e-02, 4.91089523e-02, 3.41357589e-02,
          9.59252194e-02, 1.47501588e-01, 2.92418927e-01, 2.92418927e-01,
          2.13429868e-01, 4.81843092e-02, 6.27073869e-02, 1.81353986e-02,
          7.73215592e-02, 7.16220886e-02, 7.16205314e-02, 1.41295210e-01,
          1.98989421e-01, 2.94162810e-01, 1.82188004e-01, 1.47233650e-01,
          1.21765256e-01, 4.80214283e-02, 5.71064390e-02, 6.43250048e-02,
          5.59047088e-02, 2.85977513e-01, 2.94162810e-01, 2.78252840e-01,
          1.70533359e-01, 7.42160752e-02, 1.80206262e-02, 2.56483443e-02,
          2.64903493e-02, 2.38467500e-01, 2.94162810e-01, 2.94162810e-01,
          9.25201252e-02, 5.89784682e-02, 4.36583608e-02, 2.91196182e-02,
          4.97990362e-02, 3.83129492e-02, 1.35720581e-01, 2.94162810e-01,
          2.94162810e-01, 1.38996050e-01, 9.31845829e-02, 4.50745374e-02,
          5.55977747e-02, 5.30074611e-02, 2.52030771e-02, 7.89287239e-02,
          3.43378693e-01, 3.43378693e-01, 1.77109823e-01, 1.08489431e-01,
          5.65059632e-02, 3.91482562e-02, 2.90058721e-02, 1.19714988e-02,
          4.77033332e-02, 3.43378693e-01, 2.58615583e-01, 9.87005606e-02,
          6.01879582e-02, 5.71785532e-02, 1.19146835e-02, 2.56373640e-02,
          2.60856077e-02, 1.70988649e-01, 3.43378693e-01, 3.43378693e-01,
          1.36609897e-01, 6.38992488e-02, 1.15445470e-02, 1.27791334e-03,
          6.80596521e-03, 1.01036970e-02, 1.45284206e-01, 3.43378693e-01,
          2.55256832e-01, 4.07565869e-02, 6.34335587e-03, 2.43406976e-04,
          3.97167951e-02, 2.60951631e-02, 1.95590556e-02, 4.67868112e-02,
          4.31019038e-01, 3.72479439e-01, 1.78372741e-01, 7.97346979e-02,
          6.84242472e-02, 2.88139135e-02, 5.30956089e-02, 1.11866526e-01,
          1.19365409e-01, 1.25205144e-01, 2.39687134e-02, 2.07073130e-02,
          1.80001631e-02, 2.51769628e-02, 2.09973268e-02, 3.08574270e-02,
          8.54346231e-02, 3.74169797e-01, 4.31019038e-01, 3.26681793e-01,
          2.52501797e-02, 3.22626974e-03, 7.94024765e-03, 3.48882936e-02,
          8.86080042e-02, 1.98879078e-01, 2.29218379e-01, 1.77030101e-01,
          2.21818108e-02, 3.34622129e-03, 1.53090572e-03, 2.29866151e-02,
          1.02538718e-02, 2.34170929e-02, 9.58004966e-02, 3.29279631e-01,
          3.29279631e-01, 1.22701935e-01, 9.46081243e-03, 7.58490572e-03,
          4.31951322e-03, 1.81876414e-03, 9.55874193e-03, 3.07345912e-02,
          3.29279631e-01, 3.29279631e-01, 1.79344192e-01, 2.26950310e-02,
          4.72850678e-03, 1.06508879e-03, 2.58843377e-02, 2.36851275e-02,
          2.84159929e-02, 2.29740575e-01, 3.29279631e-01, 2.29660884e-01,
          5.53424954e-02, 5.82115352e-02, 1.27198771e-02, 5.15441708e-02,
          6.19925112e-02, 5.70991486e-02, 2.79269755e-01, 3.29279631e-01,
          2.16778636e-01, 9.19653550e-02, 1.63847327e-01, 5.60348406e-02,
          8.04387592e-03, 6.31117960e-03, 9.51060560e-03, 3.14469814e-01,
          3.14469814e-01, 1.54831156e-01, 5.09232804e-02, 1.74965505e-02,
          1.44928135e-02, 2.12369524e-02, 2.02799886e-02, 3.19223292e-02,
          1.61618918e-01, 3.14469814e-01, 1.99174762e-01, 7.19449073e-02,
          4.71359044e-02, 3.42874229e-02, 4.72311229e-02, 1.44902468e-01,
          1.63058177e-01, 3.14469814e-01, 3.14469814e-01, 1.32606149e-01,
          4.82391343e-02, 8.11655521e-02, 5.93590029e-02, 2.89437752e-02,
          1.50902644e-01, 1.84415400e-01, 3.14469814e-01, 3.14469814e-01,
          2.40026459e-01, 4.80339564e-02, 4.41114418e-02, 4.21113037e-02,
          6.64099772e-03, 1.36059346e-02, 2.95604467e-02, 1.67233765e-01,
          3.75766456e-01, 1.77695215e-01, 3.49185988e-02, 1.99242458e-02,
          9.99475177e-03, 5.78736071e-04, 1.37289497e-03, 1.10792862e-02,
          1.94544837e-01, 3.75766456e-01, 9.47260112e-02, 7.29356753e-03,
          5.48532757e-04, 1.66593927e-05, 3.88327753e-03, 4.10261266e-02,
          8.12166780e-02, 3.67881626e-01, 3.75766456e-01, 2.01976880e-01,
          2.06636842e-02, 1.68204494e-02, 1.11783333e-02, 3.29078030e-04,
          1.39397976e-03, 3.53727601e-02, 3.63965273e-01, 3.75766456e-01,
          5.56433536e-02, 8.92552431e-04, 1.14278961e-03, 1.84368415e-04,
          3.00369542e-02, 3.09825670e-02, 1.10213839e-01, 4.62795556e-01,
          4.62795556e-01, 9.37425047e-02, 3.80217726e-03, 9.10243616e-05,
          1.50441108e-02, 5.60799055e-02, 5.14943823e-02, 1.09322831e-01,
          1.62865847e-01, 1.02675498e-01, 1.68070048e-02, 1.46350758e-02,
          4.06855950e-03, 4.09266464e-02, 2.24398859e-02, 2.69821174e-02,
          1.29240111e-01, 4.62795556e-01, 4.62795556e-01, 1.87784657e-02,
          2.57457863e-03, 6.32407796e-03, 1.36656649e-02, 8.45108479e-02,
          6.40865415e-02, 1.09903544e-01, 8.50026906e-02, 7.14791566e-02,
          1.22307856e-02, 2.38400139e-02, 1.95664465e-02, 5.77308461e-02,
          1.04875855e-01, 1.13512859e-01, 7.73129016e-02, 1.30098850e-01,
          2.49758601e-01, 2.41763741e-01, 1.03998892e-01, 1.33118436e-01,
          4.66753207e-02, 1.92474857e-01, 1.77344948e-01, 1.74563259e-01,
          2.34368876e-01, 2.49758601e-01, 1.27157569e-01, 1.65730923e-01,
          2.49758601e-01, 1.52938485e-01, 1.21971875e-01, 1.99339151e-01,
          1.48890555e-01, 1.24074727e-01, 6.25198931e-02, 1.54190555e-01,
          1.16847150e-01, 1.20470926e-01, 6.11972660e-02, 1.79199845e-01,
          2.49758601e-01, 2.49758601e-01, 2.49758601e-01, 8.26222748e-02,
          1.00990124e-01, 1.27876714e-01, 1.81686610e-01, 1.26805037e-01,
          9.35756490e-02, 1.91322565e-01, 2.36075431e-01, 2.43026599e-01,
          2.43026599e-01, 6.64514676e-02, 5.82660735e-02, 1.59850344e-01,
          1.07242882e-01, 5.28944060e-02, 2.15520546e-01, 2.37201080e-01,
          2.43026599e-01, 2.43026599e-01, 1.24305874e-01, 2.66872495e-02,
          1.14291690e-01, 1.02714665e-01, 8.94245729e-02, 2.27409497e-01,
          2.43026599e-01, 2.43026599e-01, 8.62398669e-02, 3.66667919e-02,
          4.24744673e-02, 1.14974998e-01, 1.08583286e-01, 8.55031461e-02,
          2.20306188e-01, 2.43026599e-01, 2.24385217e-01, 1.45670608e-01,
          4.85040843e-02, 3.31411958e-02, 1.88965827e-01, 1.76104337e-01,
          3.52908522e-02, 1.18667528e-01, 2.01816186e-01, 2.94859499e-01,
          2.94859499e-01, 1.99854717e-01, 4.01084349e-02, 8.40350986e-02,
          1.20425388e-01, 1.76306125e-02, 1.53648043e-02, 8.62952396e-02,
          2.94859499e-01, 2.94859499e-01, 6.48255572e-02, 1.80987623e-02,
          1.17835095e-02, 4.55963127e-02, 9.00958553e-02, 1.69878885e-01,
          2.94859499e-01, 2.27228954e-01, 2.56682247e-01, 1.22246213e-01,
          6.55001551e-02, 1.52166903e-01, 2.25396365e-01, 4.31122705e-02,
          1.27652705e-01, 2.94859499e-01, 1.61476716e-01, 1.90470591e-01,
          6.15589879e-02, 4.29378748e-02, 1.58383977e-02, 8.60704258e-02,
          4.69620675e-02, 4.20190804e-02, 5.95869236e-02, 1.67102799e-01,
          2.00585514e-01, 1.86528843e-02, 8.81141610e-03, 1.55830607e-02,
          2.69086678e-02, 9.75480750e-02, 5.34097552e-02, 5.36333248e-02,
          2.98539177e-02, 4.42192107e-02, 6.31498126e-03, 2.31790785e-02,
          1.79979801e-02, 5.65362312e-02, 1.56643718e-01, 4.03666019e-01,
          4.03666019e-01, 1.34095132e-01, 1.48899451e-01, 3.21618319e-02,
          3.59632336e-02, 2.69380026e-02, 5.29537760e-02, 2.62119681e-01,
          4.03666019e-01, 4.03666019e-01, 1.66251510e-01, 2.45316654e-01,
          3.49079892e-02, 7.27778226e-02, 3.99079025e-02, 9.86912847e-02,
          1.07222512e-01, 3.02002370e-01, 2.81056285e-01, 1.76154330e-01,
          4.72976938e-02, 1.00092702e-01, 1.47501364e-01, 1.79377690e-01,
          7.56938532e-02, 1.62310123e-01, 3.33849519e-01, 3.33849519e-01,
          3.33849519e-01, 1.91145644e-01, 1.61873236e-01, 1.11536764e-01,
          2.62973458e-01, 2.11947486e-01, 5.32782972e-02, 7.88651630e-02,
          4.59895730e-02, 4.61378247e-02, 4.84115854e-02, 1.33977644e-02,
          1.34393983e-02, 5.16606718e-02, 3.83133553e-02, 1.00126684e-01,
          2.24073946e-01, 1.72037765e-01, 1.07498065e-01, 8.47114995e-02,
          2.91046314e-02, 1.71067026e-02, 1.18096136e-01, 1.35132715e-01,
          9.64589342e-02, 2.95846760e-01, 2.95846760e-01, 2.95846760e-01,
          1.78515971e-01, 5.48663884e-02, 3.34917866e-02, 1.07718438e-01,
          2.33001947e-01, 1.27736494e-01, 2.95846760e-01, 2.95846760e-01,
          2.48565510e-01, 1.92844719e-01, 5.13238981e-02, 3.72804031e-02,
          1.38385504e-01, 2.95846760e-01, 4.31870185e-02, 1.28211498e-01,
          1.59455642e-01, 1.65171996e-01, 1.14880048e-01, 2.73717046e-02,
          1.94398612e-02, 4.99474853e-02, 1.61563277e-01, 4.97183390e-02,
          8.56981575e-02, 1.41246706e-01, 1.69014692e-01, 1.28133297e-01,
          4.95866463e-02, 3.62031572e-02, 3.23448665e-02, 1.69498503e-01,
          1.09876297e-01, 2.09017515e-01, 3.40084255e-01, 2.27937713e-01,
          1.54631570e-01, 6.45160303e-02, 4.16768938e-02, 8.89843926e-02,
          1.99611783e-01, 1.38586834e-01, 3.40084255e-01, 3.40084255e-01,
          2.08935753e-01, 3.14593107e-01, 8.38802904e-02, 3.94289792e-02,
          1.33570433e-02, 1.01712130e-01, 4.45265956e-02, 4.70185429e-02,
          9.68881398e-02, 1.02507375e-01, 1.23751625e-01, 3.84897292e-02,
          2.61103064e-02, 1.56671349e-02, 6.15778267e-02, 1.34498671e-01,
          2.25820646e-01, 2.56897479e-01, 9.40187797e-02, 2.87915200e-01,
          5.78000583e-02, 1.54574020e-02, 2.00445019e-02, 8.36415589e-02,
          1.18883118e-01, 4.00798857e-01, 4.00798857e-01, 9.71436054e-02,
          1.26565248e-01, 3.66211608e-02, 1.95477773e-02, 1.59778856e-02,
          4.44661863e-02, 1.00556634e-01, 4.00798857e-01, 4.00798857e-01,
          9.46210474e-02, 1.20398439e-01, 2.56803110e-02, 2.80335210e-02,
          3.20495628e-02, 4.80207503e-02, 9.09962729e-02, 2.85645097e-01,
          3.18240672e-01, 5.45408279e-02, 1.11888170e-01, 2.69096587e-02,
          8.99649598e-03, 9.15489625e-03, 4.63423245e-02, 4.21379656e-02,
          1.42705530e-01, 1.76434919e-01, 3.29522602e-02, 7.25039989e-02,
          2.44048722e-02, 1.76389590e-02, 1.38887363e-02, 3.40670310e-02 ]
      - [ 1.50091231e-01, 1.25131637e-01, 6.05603047e-02, 1.35017484e-01,
          3.02751988e-01, 2.68314213e-01, 2.07162753e-01, 8.93116966e-02,
          1.65080398e-01, 5.99677339e-02, 8.70330185e-02, 1.57581061e-01,
          1.39941782e-01, 1.26151934e-01, 6.23954795e-02, 3.66450436e-02,
          2.60956120e-02, 6.91259131e-02, 7.51847774e-02, 3.29514481e-02,
          6.19064234e-02, 2.07821816e-01, 3.02751988e-01, 2.88591504e-01,
          2.59298652e-01, 1.11231372e-01, 1.18210584e-01, 3.35990377e-02,
          7.04311952e-02, 3.02751988e-01, 3.02751988e-01, 3.02751988e-01,
          7.88405836e-02, 2.71827467e-02, 1.82855781e-02, 4.75263186e-02,
          3.08874976e-02, 1.22934654e-01, 1.58246428e-01, 7.85168558e-02,
          6.74991533e-02, 3.58258598e-02, 2.29364187e-02, 4.33849730e-03,
          1.06624309e-02, 9.72919986e-02, 2.15320274e-01, 2.35281661e-01,
          1.17747009e-01, 2.47943923e-01, 1.65936470e-01, 9.32590589e-02,
          1.67236533e-02, 1.54463332e-02, 1.51088219e-02, 1.34345889e-01,
          3.05871636e-01, 3.05871636e-01, 3.05871636e-01, 7.40991086e-02,
          2.17658430e-02, 6.84552174e-03, 1.25235310e-02, 3.17303762e-02,
          1.87963739e-01, 3.05871636e-01, 3.05871636e-01, 3.05871636e-01,
          2.99878001e-01, 8.63628685e-02, 1.34753678e-02, 1.41581595e-02,
          9.34210792e-02, 1.17702909e-01, 1.57125711e-01, 1.31626293e-01,
          3.08823317e-01, 1.62971005e-01, 7.27820173e-02, 3.52371633e-02,
          2.74552777e-02, 1.02952488e-01, 6.38539046e-02, 9.68562886e-02,
          1.65926337e-01, 3.08823317e-01, 2.37718210e-01, 9.33006853e-02,
          1.16596736e-01, 5.88118546e-02, 1.85810551e-02, 5.62486313e-02,
          7.90029690e-02, 3.08823317e-01, 3.08823317e-01, 2.39095658e-01,
          6.58694729e-02, 1.41770728e-02, 1.05090365e-02, 2.97067929e-02,
          1.98795963e-02, 2.52980366e-02, 3.08823317e-01, 3.08823317e-01,
          3.08823317e-01, 1.18791334e-01, 8.85803849e-02, 3.95309068e-02,
          1.15075901e-01, 6.49912506e-02, 1.02629699e-01, 1.94523603e-01,
          3.21759790e-01, 2.40677208e-01, 6.06872439e-02, 8.06086436e-02,
          5.20509928e-02, 9.28784460e-02, 4.62473631e-02, 1.05824687e-01,
          2.23083034e-01, 3.21759790e-01, 2.60827839e-01, 1.12338714e-01,
          1.13598593e-01, 9.14634243e-02, 2.14987416e-02, 1.23095158e-02,
          1.94159914e-02, 1.64632052e-01, 3.21759790e-01, 3.21759790e-01,
          1.02919884e-01, 6.90296069e-02, 2.54015140e-02, 3.14619904e-03,
          1.63123552e-02, 4.78713065e-02, 2.43403628e-01, 3.21759790e-01,
          2.45765716e-01, 4.78102379e-02, 1.49408318e-02, 3.54430708e-03,
          1.27515616e-02, 2.51048971e-02, 6.58400878e-02, 2.51283318e-01,
          3.06257457e-01, 1.60330951e-01, 1.50599808e-01, 2.91861333e-02,
          2.04219650e-02, 1.14885634e-02, 2.48545818e-02, 1.30303919e-01,
          3.61843705e-01, 3.61843705e-01, 7.80041590e-02, 2.49692965e-02,
          5.41739492e-03, 1.00217517e-02, 1.57350693e-02, 4.06740457e-02,
          5.68530746e-02, 2.53987581e-01, 3.61843705e-01, 9.91893560e-02,
          7.67511055e-02, 6.00932948e-02, 2.76196618e-02, 1.63024683e-02,
          9.59955063e-03, 2.55269967e-02, 3.61843705e-01, 3.61843705e-01,
          1.17649950e-01, 2.41780616e-02, 8.91152583e-03, 1.34764370e-02,
          2.00908165e-03, 1.57346576e-02, 1.03439264e-01, 3.32511127e-01,
          3.34226578e-01, 8.11398476e-02, 6.58256654e-03, 2.46229977e-03,
          2.65969173e-03, 7.92251900e-04, 3.21782343e-02, 8.86418596e-02,
          3.31066728e-01, 3.34226578e-01, 2.20040545e-01, 2.64202822e-02,
          3.04797338e-03, 2.70911120e-03, 2.84862821e-03, 4.93463874e-03,
          1.61234587e-02, 2.80868351e-01, 3.34226578e-01, 9.55522805e-02,
          1.23013519e-02, 2.03880444e-02, 4.86283097e-03, 3.70748602e-02,
          2.20162272e-02, 2.57814135e-02, 2.90138453e-01, 3.34226578e-01,
          2.07876861e-01, 6.85570240e-02, 1.33989111e-01, 1.12134598e-01,
          3.45320883e-03, 1.85664650e-02, 2.63540223e-02, 2.96250582e-01,
          3.04835141e-01, 1.76941872e-01, 2.91155353e-02, 4.78192279e-03,
          8.24439339e-03, 2.32598279e-02, 3.09497304e-02, 1.78096537e-02,
          2.45549053e-01, 3.04835141e-01, 2.15023100e-01, 7.74905831e-02,
          2.79510822e-02, 4.16384526e-02, 7.62272105e-02, 2.98942495e-02,
          3.43708433e-02, 2.75624305e-01, 3.04835141e-01, 2.11054370e-01,
          1.08310297e-01, 1.55291796e-01, 1.54197976e-01, 1.08189389e-01,
          6.07759543e-02, 8.32478330e-02, 2.74209946e-01, 3.04835141e-01,
          2.44222715e-01, 1.51912123e-01, 1.01377830e-01, 9.37387496e-02,
          1.75952241e-02, 2.44491845e-02, 1.91681720e-02, 1.17063664e-01,
          4.14988279e-01, 2.02753633e-01, 8.57771635e-02, 2.37137079e-02,
          2.84080040e-02, 1.09416223e-03, 3.85365332e-03, 1.65891591e-02,
          1.72281176e-01, 4.14988279e-01, 9.77497473e-02, 1.72842685e-02,
          3.39496671e-03, 1.82924105e-03, 8.66985917e-02, 4.69755158e-02,
          5.78187928e-02, 1.94333807e-01, 4.14988279e-01, 2.35039949e-01,
          7.12134615e-02, 2.73918845e-02, 4.14635688e-02, 6.35363488e-03,
          4.45293356e-03, 1.36747323e-02, 2.78179646e-01, 4.14988279e-01,
          1.04448818e-01, 1.21271666e-02, 2.85531068e-03, 5.02843503e-03,
          1.38688562e-02, 1.41421622e-02, 1.70581117e-02, 1.08961076e-01,
          3.81554782e-01, 8.04142356e-02, 4.86292578e-02, 4.18426916e-02,
          1.93961225e-02, 1.52615765e-02, 1.06231607e-02, 2.22774502e-02,
          1.89121589e-01, 4.51739520e-01, 1.29469961e-01, 3.35185118e-02,
          1.14457989e-02, 1.48406914e-02, 1.56408884e-02, 1.12352688e-02,
          1.46899046e-02, 6.27619997e-02, 4.51739520e-01, 5.93258739e-02,
          1.00306338e-02, 5.73705090e-03, 1.25920931e-02, 3.41529176e-02,
          8.97775069e-02, 1.48040950e-01, 2.01447114e-01, 4.51739520e-01,
          2.48144269e-01, 1.30137354e-01, 1.19962199e-02, 2.49274168e-02,
          1.82706583e-02, 1.88132413e-02, 3.53527404e-02, 1.32911071e-01,
          2.85671562e-01, 7.21057430e-02, 3.23027559e-02, 4.78958897e-02,
          1.85197052e-02, 1.04175672e-01, 8.79703462e-02, 1.12365328e-01,
          1.65021911e-01, 2.85671562e-01, 8.23627114e-02, 1.00580312e-01,
          2.85671562e-01, 2.85671562e-01, 6.77333176e-02, 1.56901076e-01,
          1.32233396e-01, 1.38834432e-01, 2.85671562e-01, 1.57018691e-01,
          9.35369059e-02, 3.71165760e-02, 3.34076509e-02, 1.59858048e-01,
          2.85671562e-01, 2.85671562e-01, 2.85671562e-01, 1.87278673e-01,
          1.00075796e-01, 8.52774233e-02, 1.72578350e-01, 1.75739497e-01,
          1.35528430e-01, 9.44883600e-02, 1.21577568e-01, 1.27482980e-01,
          2.30881974e-01, 8.52513760e-02, 9.98634547e-02, 2.58050501e-01,
          2.58050501e-01, 1.48685113e-01, 2.05141485e-01, 1.87399507e-01,
          1.87997803e-01, 2.58050501e-01, 1.22510791e-01, 1.18582241e-01,
          1.37611941e-01, 1.19926758e-01, 1.00614138e-01, 2.28860974e-01,
          2.58050501e-01, 2.58050501e-01, 8.16318691e-02, 5.89393117e-02,
          5.95416017e-02, 1.45860091e-01, 1.47421747e-01, 1.00956224e-01,
          2.58050501e-01, 2.58050501e-01, 1.92732066e-01, 7.02848807e-02,
          7.35244825e-02, 1.09479129e-01, 1.02596194e-01, 7.73661360e-02,
          1.08002253e-01, 1.74656644e-01, 1.32313982e-01, 2.55897999e-01,
          2.90716231e-01, 1.62842304e-01, 8.42579752e-02, 4.83511649e-02,
          6.18693978e-02, 1.47178881e-02, 2.57237907e-02, 4.37820032e-02,
          2.90716231e-01, 2.90716231e-01, 9.21476409e-02, 6.07601441e-02,
          4.44079787e-02, 6.16660938e-02, 1.04010664e-01, 2.90716231e-01,
          2.90716231e-01, 2.30700269e-01, 1.87430039e-01, 9.61666927e-02,
          1.23404689e-01, 1.11097835e-01, 1.28503278e-01, 5.24742566e-02,
          1.24228686e-01, 2.16845870e-01, 2.90716231e-01, 1.94458827e-01,
          4.04551066e-02, 1.03458352e-01, 1.18740365e-01, 1.49458796e-01,
          3.30840726e-03, 7.75603950e-03, 1.62324812e-02, 4.63090539e-02,
          2.41930425e-01, 2.51535494e-02, 3.73385940e-03, 2.27365503e-03,
          2.50782399e-03, 1.95981301e-02, 1.89606711e-01, 3.57964486e-01,
          2.33682677e-01, 2.58602530e-01, 8.49763900e-02, 6.79507926e-02,
          4.03361395e-03, 1.26456562e-02, 7.73871131e-03, 8.82053897e-02,
          1.79509476e-01, 1.03677705e-01, 3.50981444e-01, 4.42505367e-02,
          1.05809718e-02, 3.98075813e-03, 4.05983347e-03, 1.97389349e-02,
          3.57964486e-01, 3.57964486e-01, 3.57964486e-01, 2.68172026e-01,
          5.14359474e-02, 3.22205462e-02, 1.20731918e-02, 1.14499889e-02,
          6.00276366e-02, 2.31187999e-01, 2.61100024e-01, 2.11743757e-01,
          2.07463831e-01, 8.67228135e-02, 6.08128682e-02, 1.53512992e-02,
          3.53872217e-02, 1.03334263e-01, 2.61100024e-01, 2.61100024e-01,
          2.61100024e-01, 2.28673249e-01, 6.69991225e-02, 4.15031388e-02,
          6.13786355e-02, 7.86677450e-02, 3.87183353e-02, 2.61100024e-01,
          2.61100024e-01, 2.15473428e-01, 1.56936571e-01, 3.37761566e-02,
          3.42572518e-02, 1.35473125e-02, 2.68543400e-02, 1.69781804e-01,
          1.90671995e-01, 2.61100024e-01, 2.05770969e-01, 2.44220272e-01,
          6.60245493e-02, 1.22821055e-01, 5.69303557e-02, 1.33335263e-01,
          7.82445967e-02, 1.68432489e-01, 2.75660932e-01, 2.75660932e-01,
          1.21139228e-01, 4.56715710e-02, 3.21098156e-02, 4.49344926e-02,
          4.85299192e-02, 8.11344162e-02, 2.73661524e-01, 2.75660932e-01,
          2.56239802e-01, 4.28723060e-02, 5.30503877e-02, 5.95420524e-02,
          3.80134992e-02, 3.74301858e-02, 1.76232696e-01, 1.85414389e-01,
          2.75660932e-01, 2.20253512e-01, 1.58754915e-01, 7.45373666e-02,
          1.31808892e-01, 9.62042734e-02, 1.77977011e-01, 1.38620809e-01,
          2.17273876e-01, 2.75660932e-01, 2.44605616e-01, 9.10895243e-02,
          7.07071945e-02, 1.16773121e-01, 1.34403363e-01, 1.67936385e-01,
          9.02828351e-02, 3.43998462e-01, 3.43998462e-01, 3.43998462e-01,
          5.59324063e-02, 6.93768412e-02, 7.65473247e-02, 7.47072101e-02,
          8.71025324e-02, 4.81851362e-02, 1.34369284e-01, 3.43998462e-01,
          1.95053637e-01, 4.89868447e-02, 1.31223295e-02, 4.10976745e-02,
          6.72335550e-02, 8.29185918e-02, 8.68842453e-02, 2.37965927e-01,
          3.43998462e-01, 3.43998462e-01, 4.27603386e-02, 2.86079440e-02,
          7.48144761e-02, 9.71238539e-02, 9.88761038e-02, 6.26256391e-02,
          6.88646957e-02, 2.42756277e-01, 1.14873685e-01, 6.41018599e-02,
          8.69176444e-03, 7.66236708e-03, 1.05886441e-02, 2.40237359e-02 ]
      - [ 6.70867413e-02, 1.13805123e-01, 2.00724781e-01, 9.75955725e-02,
          5.65868206e-02, 7.13056847e-02, 7.53605887e-02, 1.88845843e-01,
          1.29945353e-01, 5.71755320e-02, 1.18671648e-01, 1.76810443e-01,
          1.41363025e-01, 7.88120627e-02, 4.60444205e-02, 3.77872400e-02,
          5.89073114e-02, 5.42468503e-02, 1.32813543e-01, 9.26172361e-02,
          1.33958668e-01, 1.83946460e-01, 1.88120350e-01, 2.84091562e-01,
          2.84091562e-01, 2.84091562e-01, 2.38955781e-01, 1.32902369e-01,
          1.10160813e-01, 1.64404184e-01, 2.67943770e-01, 2.38941282e-01,
          2.84091562e-01, 2.71225840e-01, 1.17825881e-01, 1.10133924e-01,
          4.94915321e-02, 1.03988014e-01, 1.71216682e-01, 1.67272508e-01,
          9.09532905e-02, 2.60240827e-02, 2.18489040e-02, 2.85678394e-02,
          3.12624425e-02, 4.55169603e-02, 5.71760237e-02, 2.38990918e-01,
          3.37955952e-01, 3.37955952e-01, 1.45623788e-01, 7.94464052e-02,
          2.73031238e-02, 1.59301739e-02, 5.51581047e-02, 8.04879218e-02,
          2.17646033e-01, 3.37955952e-01, 2.07493886e-01, 1.37792721e-01,
          9.12443548e-02, 4.86406051e-02, 3.77799496e-02, 2.85989046e-02,
          5.17953746e-02, 3.30843359e-01, 3.37955952e-01, 3.37955952e-01,
          8.62777680e-02, 1.00512598e-02, 1.23303141e-02, 3.30728516e-02,
          1.62496623e-02, 1.13614118e-02, 9.66554433e-02, 2.85802573e-01,
          3.07467788e-01, 1.22006409e-01, 4.99723069e-02, 1.61328316e-02,
          5.71470894e-03, 5.48230186e-02, 4.13242988e-02, 3.65711451e-02,
          9.12748277e-02, 1.23621561e-01, 6.13973550e-02, 1.36775980e-02,
          1.91535261e-02, 3.66994515e-02, 5.59072047e-02, 1.03571028e-01,
          1.25880897e-01, 3.07467788e-01, 3.07467788e-01, 8.64242613e-02,
          2.04528961e-02, 5.09520695e-02, 5.60954735e-02, 3.07467788e-01,
          3.07467788e-01, 1.57830268e-01, 2.62567371e-01, 3.07467788e-01,
          1.29102618e-01, 4.75323014e-02, 1.95606068e-01, 3.01514387e-01,
          4.09856886e-02, 1.09100491e-01, 1.48970440e-01, 1.50114283e-01,
          1.05419986e-01, 6.21683821e-02, 8.99334066e-03, 8.52974318e-03,
          2.11419053e-02, 4.68617491e-02, 2.90153295e-01, 2.90153295e-01,
          2.90153295e-01, 1.32960871e-01, 5.83148487e-02, 1.70268063e-02,
          2.56391242e-02, 3.39141786e-02, 2.73072571e-01, 2.83976853e-01,
          2.00697556e-01, 2.17483759e-01, 1.15504213e-01, 1.20824568e-01,
          1.78857893e-02, 5.64000532e-02, 1.45925507e-01, 2.09667116e-01,
          2.90153295e-01, 2.90153295e-01, 2.39003673e-01, 1.20910220e-01,
          1.26591951e-01, 7.30133429e-02, 1.15305573e-01, 1.76113203e-01,
          3.76584828e-02, 2.31094509e-02, 3.51607054e-02, 9.92473215e-02,
          2.58064568e-01, 2.72903115e-01, 2.72903115e-01, 1.18345797e-01,
          4.91666198e-02, 4.64327745e-02, 4.39683646e-02, 8.55987445e-02,
          2.01287076e-01, 2.51932502e-01, 2.72903115e-01, 2.72903115e-01,
          1.35146111e-01, 6.26727641e-02, 3.39907929e-02, 1.96254849e-02,
          3.54477204e-02, 7.76667595e-02, 2.72903115e-01, 2.72903115e-01,
